{"learner":{"attributes":{"best_iteration":"574","best_score":"0.432637107951332","scikit_learn":"{\"_estimator_type\": \"classifier\"}"},"feature_names":[],"feature_types":[],"gradient_booster":{"model":{"cats":{"enc":[],"feature_segments":[],"sorted_idx":[]},"gbtree_model_param":{"num_parallel_tree":"1","num_trees":"625"},"iteration_indptr":[0,1,2,3,4,5,6,7,8,9,10,11,12,13,14,15,16,17,18,19,20,21,22,23,24,25,26,27,28,29,30,31,32,33,34,35,36,37,38,39,40,41,42,43,44,45,46,47,48,49,50,51,52,53,54,55,56,57,58,59,60,61,62,63,64,65,66,67,68,69,70,71,72,73,74,75,76,77,78,79,80,81,82,83,84,85,86,87,88,89,90,91,92,93,94,95,96,97,98,99,100,101,102,103,104,105,106,107,108,109,110,111,112,113,114,115,116,117,118,119,120,121,122,123,124,125,126,127,128,129,130,131,132,133,134,135,136,137,138,139,140,141,142,143,144,145,146,147,148,149,150,151,152,153,154,155,156,157,158,159,160,161,162,163,164,165,166,167,168,169,170,171,172,173,174,175,176,177,178,179,180,181,182,183,184,185,186,187,188,189,190,191,192,193,194,195,196,197,198,199,200,201,202,203,204,205,206,207,208,209,210,211,212,213,214,215,216,217,218,219,220,221,222,223,224,225,226,227,228,229,230,231,232,233,234,235,236,237,238,239,240,241,242,243,244,245,246,247,248,249,250,251,252,253,254,255,256,257,258,259,260,261,262,263,264,265,266,267,268,269,270,271,272,273,274,275,276,277,278,279,280,281,282,283,284,285,286,287,288,289,290,291,292,293,294,295,296,297,298,299,300,301,302,303,304,305,306,307,308,309,310,311,312,313,314,315,316,317,318,319,320,321,322,323,324,325,326,327,328,329,330,331,332,333,334,335,336,337,338,339,340,341,342,343,344,345,346,347,348,349,350,351,352,353,354,355,356,357,358,359,360,361,362,363,364,365,366,367,368,369,370,371,372,373,374,375,376,377,378,379,380,381,382,383,384,385,386,387,388,389,390,391,392,393,394,395,396,397,398,399,400,401,402,403,404,405,406,407,408,409,410,411,412,413,414,415,416,417,418,419,420,421,422,423,424,425,426,427,428,429,430,431,432,433,434,435,436,437,438,439,440,441,442,443,444,445,446,447,448,449,450,451,452,453,454,455,456,457,458,459,460,461,462,463,464,465,466,467,468,469,470,471,472,473,474,475,476,477,478,479,480,481,482,483,484,485,486,487,488,489,490,491,492,493,494,495,496,497,498,499,500,501,502,503,504,505,506,507,508,509,510,511,512,513,514,515,516,517,518,519,520,521,522,523,524,525,526,527,528,529,530,531,532,533,534,535,536,537,538,539,540,541,542,543,544,545,546,547,548,549,550,551,552,553,554,555,556,557,558,559,560,561,562,563,564,565,566,567,568,569,570,571,572,573,574,575,576,577,578,579,580,581,582,583,584,585,586,587,588,589,590,591,592,593,594,595,596,597,598,599,600,601,602,603,604,605,606,607,608,609,610,611,612,613,614,615,616,617,618,619,620,621,622,623,624,625],"tree_info":[0,0,0,0,0,0,0,0,0,0,0,0,0,0,0,0,0,0,0,0,0,0,0,0,0,0,0,0,0,0,0,0,0,0,0,0,0,0,0,0,0,0,0,0,0,0,0,0,0,0,0,0,0,0,0,0,0,0,0,0,0,0,0,0,0,0,0,0,0,0,0,0,0,0,0,0,0,0,0,0,0,0,0,0,0,0,0,0,0,0,0,0,0,0,0,0,0,0,0,0,0,0,0,0,0,0,0,0,0,0,0,0,0,0,0,0,0,0,0,0,0,0,0,0,0,0,0,0,0,0,0,0,0,0,0,0,0,0,0,0,0,0,0,0,0,0,0,0,0,0,0,0,0,0,0,0,0,0,0,0,0,0,0,0,0,0,0,0,0,0,0,0,0,0,0,0,0,0,0,0,0,0,0,0,0,0,0,0,0,0,0,0,0,0,0,0,0,0,0,0,0,0,0,0,0,0,0,0,0,0,0,0,0,0,0,0,0,0,0,0,0,0,0,0,0,0,0,0,0,0,0,0,0,0,0,0,0,0,0,0,0,0,0,0,0,0,0,0,0,0,0,0,0,0,0,0,0,0,0,0,0,0,0,0,0,0,0,0,0,0,0,0,0,0,0,0,0,0,0,0,0,0,0,0,0,0,0,0,0,0,0,0,0,0,0,0,0,0,0,0,0,0,0,0,0,0,0,0,0,0,0,0,0,0,0,0,0,0,0,0,0,0,0,0,0,0,0,0,0,0,0,0,0,0,0,0,0,0,0,0,0,0,0,0,0,0,0,0,0,0,0,0,0,0,0,0,0,0,0,0,0,0,0,0,0,0,0,0,0,0,0,0,0,0,0,0,0,0,0,0,0,0,0,0,0,0,0,0,0,0,0,0,0,0,0,0,0,0,0,0,0,0,0,0,0,0,0,0,0,0,0,0,0,0,0,0,0,0,0,0,0,0,0,0,0,0,0,0,0,0,0,0,0,0,0,0,0,0,0,0,0,0,0,0,0,0,0,0,0,0,0,0,0,0,0,0,0,0,0,0,0,0,0,0,0,0,0,0,0,0,0,0,0,0,0,0,0,0,0,0,0,0,0,0,0,0,0,0,0,0,0,0,0,0,0,0,0,0,0,0,0,0,0,0,0,0,0,0,0,0,0,0,0,0,0,0,0,0,0,0,0,0,0,0,0,0,0,0,0,0,0,0,0,0,0,0,0,0,0,0,0,0,0,0,0,0,0,0,0,0,0,0,0,0,0,0,0,0,0,0,0,0,0,0,0,0,0,0,0,0,0,0,0,0,0,0,0,0,0,0,0,0,0,0,0,0,0,0,0,0,0,0,0,0,0,0,0,0,0,0,0,0,0,0,0,0,0,0,0,0,0,0,0,0,0,0,0,0,0,0,0,0,0,0,0],"trees":[{"base_weights":[8.9517525E-5,-1.2612219E0,6.275493E-1,-1.9922876E0,-6.724452E-1,-3.5553944E-1,7.403625E-1,-3.9894264E-2,-8.590087E-3,-1.3431501E0,2.2869654E-2,-6.209107E-1,6.456069E-1,6.2562704E-1,1.0988436E0,-3.0027775E-2,1.9437133E-3,2.9651378E-3,-1.3232357E-2,2.1522207E-2,-1.6201146E-2,1.4189144E-2,-6.0937223E-3,8.479776E-3,1.7454939E-2,2.0220812E-2,2.7345577E-2],"categories":[],"categories_nodes":[],"categories_segments":[],"categories_sizes":[],"default_left":[0,0,0,0,0,0,0,0,0,0,0,0,0,0,0,0,0,0,0,0,0,0,0,0,0,0,0],"id":0,"left_children":[1,3,5,7,9,11,13,-1,-1,15,17,19,21,23,25,-1,-1,-1,-1,-1,-1,-1,-1,-1,-1,-1,-1],"loss_changes":[1.1318761E4,2.0355757E3,1.0610393E3,1.3125E0,1.2325616E3,2.638639E2,3.4736816E2,0E0,0E0,3.085703E2,1.1157836E2,2.552734E2,1.4118423E1,3.2106982E2,3.948413E1,0E0,0E0,0E0,0E0,0E0,0E0,0E0,0E0,0E0,0E0,0E0,0E0],"parents":[2147483647,0,0,1,1,2,2,3,3,4,4,5,5,6,6,9,9,10,10,11,11,12,12,13,13,14,14],"right_children":[2,4,6,8,10,12,14,-1,-1,16,18,20,22,24,26,-1,-1,-1,-1,-1,-1,-1,-1,-1,-1,-1,-1],"split_conditions":[4.35E1,6.46E0,6.1E1,8E0,1E0,6.9E0,7.16E0,-3.9894264E-2,-8.590087E-3,6.72E0,3.5E1,5E0,1.5E1,2E0,7.56E0,-3.0027775E-2,1.9437133E-3,2.9651378E-3,-1.3232357E-2,2.1522207E-2,-1.6201146E-2,1.4189144E-2,-6.0937223E-3,8.479776E-3,1.7454939E-2,2.0220812E-2,2.7345577E-2],"split_indices":[28,56,18,30,0,56,56,0,0,56,17,12,59,26,56,0,0,0,0,0,0,0,0,0,0,0,0],"split_type":[0,0,0,0,0,0,0,0,0,0,0,0,0,0,0,0,0,0,0,0,0,0,0,0,0,0,0],"sum_hessian":[1.42926E4,4.74587E3,9.5467295E3,2.11104E3,2.63483E3,9.8073E2,8.566E3,2.10575E3,5.29E0,1.33951E3,1.29532E3,7.7752997E2,2.032E2,6.50161E3,2.06439E3,1.20735E3,1.3216E2,1.09932E3,1.96E2,7.509E1,7.0244E2,1.9258E2,1.062E1,3.58998E3,2.91163E3,1.57634E3,4.8805E2],"tree_param":{"num_deleted":"0","num_feature":"105","num_nodes":"27","size_leaf_vector":"1"}},{"base_weights":[1.11336475E-2,-1.23393E0,6.314991E-1,-1.9426159E0,-5.842746E-1,7.514949E-1,-3.4356317E-1,-1.9448233E0,-8.259734E-3,-1.2546501E0,6.327893E-2,6.028382E-1,1.0514758E0,-6.395038E-1,5.1658905E-1,-3.8940668E-2,-9.019467E-3,-2.8437328E-2,6.2268665E-3,-3.58674E-2,3.245638E-3,1.7722106E-2,7.941145E-3,1.7814994E-2,2.5501834E-2,-3.252896E-2,-9.285927E-3,-2.3940401E-2,1.2004896E-2],"categories":[],"categories_nodes":[],"categories_segments":[],"categories_sizes":[],"default_left":[0,0,0,0,0,0,0,0,0,0,0,0,0,0,0,0,0,0,0,0,0,0,0,0,0,0,0,0,0],"id":1,"left_children":[1,3,5,7,9,11,13,15,-1,17,19,21,23,25,27,-1,-1,-1,-1,-1,-1,-1,-1,-1,-1,-1,-1,-1,-1],"loss_changes":[1.1093767E4,2.1907808E3,1.1234495E3,1.3300781E0,1.0867539E3,3.7597705E2,2.6984363E2,7.2753906E-1,0E0,3.25214E2,2.342852E2,3.3059766E2,9.3528076E1,1.3015536E2,4.1912575E1,0E0,0E0,0E0,0E0,0E0,0E0,0E0,0E0,0E0,0E0,0E0,0E0,0E0,0E0],"parents":[2147483647,0,0,1,1,2,2,3,3,4,4,5,5,6,6,7,7,9,9,10,10,11,11,12,12,13,13,14,14],"right_children":[2,4,6,8,10,12,14,16,-1,18,20,22,24,26,28,-1,-1,-1,-1,-1,-1,-1,-1,-1,-1,-1,-1,-1,-1],"split_conditions":[4.35E1,6.6E0,1.8E1,3.194706E0,1E0,7.06E0,7E0,8E0,-8.259734E-3,6.74E0,6.04E0,5E0,7.4E0,6.5E0,6.36E0,-3.8940668E-2,-9.019467E-3,-2.8437328E-2,6.2268665E-3,-3.58674E-2,3.245638E-3,1.7722106E-2,7.941145E-3,1.7814994E-2,2.5501834E-2,-3.252896E-2,-9.285927E-3,-2.3940401E-2,1.2004896E-2],"split_indices":[28,55,12,74,0,56,55,57,0,56,56,12,55,55,56,0,0,0,0,0,0,0,0,0,0,0,0,0,0],"split_type":[0,0,0,0,0,0,0,0,0,0,0,0,0,0,0,0,0,0,0,0,0,0,0,0,0,0,0,0,0],"sum_hessian":[1.4353562E4,4.771227E3,9.582335E3,2.2764448E3,2.4947825E3,8.534242E3,1.0480924E3,2.2711565E3,5.2883787E0,1.2242462E3,1.2705363E3,5.7186997E3,2.8155425E3,7.816174E2,2.6647504E2,2.265618E3,5.5384774E0,1.1071263E3,1.1711989E2,5.9476337E1,1.2110599E3,2.3973057E3,3.321394E3,1.6552241E3,1.1603185E3,1.10733406E2,6.70884E2,8.7496E0,2.5772543E2],"tree_param":{"num_deleted":"0","num_feature":"105","num_nodes":"29","size_leaf_vector":"1"}},{"base_weights":[4.2286324E-3,-1.2055485E0,6.09548E-1,-1.8947222E0,-5.80327E-1,7.269848E-1,-2.8465918E-1,-1.9185634E0,-1.5236651E0,-1.2458102E0,5.139619E-2,6.1900926E-1,1.0960157E0,-6.132038E-1,5.7204664E-1,-3.8418017E-2,-7.447598E-3,-3.2276692E-4,-3.312968E-2,-2.8049683E-2,-5.7501206E-3,3.959531E-3,-1.2047405E-2,1.7361054E-2,8.732907E-3,7.1758428E-3,2.3093497E-2,-2.9648442E-2,-8.84526E-3,7.0276014E-3,2.2529364E-2],"categories":[],"categories_nodes":[],"categories_segments":[],"categories_sizes":[],"default_left":[0,0,0,0,0,0,0,0,0,0,0,0,0,0,0,0,0,0,0,0,0,0,0,0,0,0,0,0,0,0,0],"id":2,"left_children":[1,3,5,7,9,11,13,15,17,19,21,23,25,27,29,-1,-1,-1,-1,-1,-1,-1,-1,-1,-1,-1,-1,-1,-1,-1,-1],"loss_changes":[1.0503284E4,2.0529321E3,1.0054739E3,2.0410156E0,1.0591587E3,3.3172266E2,3.1491476E2,1.7675781E0,3.1031158E1,1.8038684E2,1.2425894E2,2.9443018E2,7.879224E1,1.1475708E2,3.448271E1,0E0,0E0,0E0,0E0,0E0,0E0,0E0,0E0,0E0,0E0,0E0,0E0,0E0,0E0,0E0,0E0],"parents":[2147483647,0,0,1,1,2,2,3,3,4,4,5,5,6,6,7,7,8,8,9,9,10,10,11,11,12,12,13,13,14,14],"right_children":[2,4,6,8,10,12,14,16,18,20,22,24,26,28,30,-1,-1,-1,-1,-1,-1,-1,-1,-1,-1,-1,-1,-1,-1,-1,-1],"split_conditions":[4.5E1,6.6E0,1.6E1,6.3333335E0,1E0,7.266667E0,7E0,8E0,4E0,5E0,4E0,5E0,5E0,6.5E0,7.4666667E0,-3.8418017E-2,-7.447598E-3,-3.2276692E-4,-3.312968E-2,-2.8049683E-2,-5.7501206E-3,3.959531E-3,-1.2047405E-2,1.7361054E-2,8.732907E-3,7.1758428E-3,2.3093497E-2,-2.9648442E-2,-8.84526E-3,7.0276014E-3,2.2529364E-2],"split_indices":[28,55,12,55,0,55,55,30,31,50,31,12,50,55,55,0,0,0,0,0,0,0,0,0,0,0,0,0,0,0,0],"split_type":[0,0,0,0,0,0,0,0,0,0,0,0,0,0,0,0,0,0,0,0,0,0,0,0,0,0,0,0,0,0,0],"sum_hessian":[1.433364E4,4.7779434E3,9.555696E3,2.2671455E3,2.5107979E3,8.448236E3,1.1074597E3,2.1081455E3,1.5900014E2,1.2211309E3,1.2896669E3,6.5483403E3,1.8998966E3,8.023491E2,3.0511057E2,2.1031077E3,5.037885E0,1.3937925E1,1.4506221E2,1.0466519E3,1.7447903E2,1.0575664E3,2.3210051E2,2.75784E3,3.7905E3,1.4390771E2,1.7559889E3,1.2459326E2,6.7775586E2,2.2537938E2,7.9731186E1],"tree_param":{"num_deleted":"0","num_feature":"105","num_nodes":"31","size_leaf_vector":"1"}},{"base_weights":[1.1760318E-2,-9.0784585E-1,6.258371E-1,-1.7643564E0,-3.2732043E-1,2.559447E-1,8.5848606E-1,-1.8137157E0,-6.8413335E-1,-1.128541E0,2.2605008E-1,-4.797644E-1,4.457285E-1,6.932837E-1,1.152612E0,-3.7050884E-2,-2.6249604E-2,6.583774E-3,-2.4417965E-2,-2.6760273E-2,-4.6761357E-3,-2.8397446E-2,5.538703E-3,1.7798942E-2,-2.0528771E-2,3.3958321E-3,1.32856155E-2,8.140056E-3,1.6981458E-2,2.0932207E-2,2.7170021E-2],"categories":[],"categories_nodes":[],"categories_segments":[],"categories_sizes":[],"default_left":[0,0,0,0,0,0,0,0,0,0,0,0,0,0,0,0,0,0,0,0,0,0,0,0,0,0,0,0,0,0,0],"id":3,"left_children":[1,3,5,7,9,11,13,15,17,19,21,23,25,27,29,-1,-1,-1,-1,-1,-1,-1,-1,-1,-1,-1,-1,-1,-1,-1,-1],"loss_changes":[8.0868203E3,2.8457896E3,7.3678125E2,1.1469385E2,1.5203081E3,4.6522238E2,2.5012964E2,2.7674316E1,6.275415E1,2.593208E2,1.707332E2,5.161696E2,1.5820062E2,1.4811902E2,3.1624268E1,0E0,0E0,0E0,0E0,0E0,0E0,0E0,0E0,0E0,0E0,0E0,0E0,0E0,0E0,0E0,0E0],"parents":[2147483647,0,0,1,1,2,2,3,3,4,4,5,5,6,6,7,7,8,8,9,9,10,10,11,11,12,12,13,13,14,14],"right_children":[2,4,6,8,10,12,14,16,18,20,22,24,26,28,30,-1,-1,-1,-1,-1,-1,-1,-1,-1,-1,-1,-1,-1,-1,-1,-1],"split_conditions":[2.04E2,6.6E0,6.78E0,1.91E2,1E0,1.36E2,7.266667E0,-1.23966314E-1,1E0,2.5E1,6.04E0,5E0,2E0,2E0,7.633333E0,-3.7050884E-2,-2.6249604E-2,6.583774E-3,-2.4417965E-2,-2.6760273E-2,-4.6761357E-3,-2.8397446E-2,5.538703E-3,1.7798942E-2,-2.0528771E-2,3.3958321E-3,1.32856155E-2,8.140056E-3,1.6981458E-2,2.0932207E-2,2.7170021E-2],"split_indices":[48,55,56,48,97,18,55,68,54,16,56,12,26,27,55,0,0,0,0,0,0,0,0,0,0,0,0,0,0,0,0],"split_type":[0,0,0,0,0,0,0,0,0,0,0,0,0,0,0,0,0,0,0,0,0,0,0,0,0,0,0,0,0,0,0],"sum_hessian":[1.4310806E4,5.7283447E3,8.582461E3,2.3092886E3,3.4190564E3,3.3195122E3,5.2629487E3,2.2042476E3,1.0504079E2,1.3953503E3,2.023706E3,6.7806E2,2.6414521E3,3.3829983E3,1.8799506E3,2.0314081E3,1.7283965E2,3.6398018E1,6.864278E1,1.1277338E3,2.6761664E2,5.6065018E1,1.967641E3,1.9200807E2,4.860519E2,1.1734071E3,1.468045E3,1.2008247E3,2.1821736E3,1.2643015E3,6.1564905E2],"tree_param":{"num_deleted":"0","num_feature":"105","num_nodes":"31","size_leaf_vector":"1"}},{"base_weights":[-1.3074501E-3,-1.1730752E0,5.8406436E-1,-1.8300984E0,-5.6879795E-1,-3.649111E-1,6.9492036E-1,-3.7105735E-2,-1.461162E0,-1.2026232E0,3.2077946E-2,-5.668921E-1,5.669434E-1,5.8986545E-1,1.0594783E0,-3.0743582E-2,3.261939E-3,-2.717119E-2,5.0551654E-3,-3.4786128E-2,2.597708E-3,2.1733688E-2,-1.43435355E-2,1.4852624E-2,2.1588593E-3,1.693064E-2,8.211593E-3,-2.1943406E-3,2.2209512E-2],"categories":[],"categories_nodes":[],"categories_segments":[],"categories_sizes":[],"default_left":[0,0,0,0,0,0,0,0,0,0,0,0,0,0,0,0,0,0,0,0,0,0,0,0,0,0,0,0,0],"id":4,"left_children":[1,3,5,7,9,11,13,-1,15,17,19,21,23,25,27,-1,-1,-1,-1,-1,-1,-1,-1,-1,-1,-1,-1,-1,-1],"loss_changes":[9.795134E3,1.8812803E3,1.00329175E3,4.2822266E0,9.482821E2,1.8950333E2,3.2185693E2,0E0,2.3809204E1,2.7763916E2,2.2135515E2,2.0825821E2,1.3219952E1,3.022827E2,1.1486743E2,0E0,0E0,0E0,0E0,0E0,0E0,0E0,0E0,0E0,0E0,0E0,0E0,0E0,0E0],"parents":[2147483647,0,0,1,1,2,2,3,3,4,4,5,5,6,6,8,8,9,9,10,10,11,11,12,12,13,13,14,14],"right_children":[2,4,6,8,10,12,14,-1,16,18,20,22,24,26,28,-1,-1,-1,-1,-1,-1,-1,-1,-1,-1,-1,-1,-1,-1],"split_conditions":[4.35E1,6.6E0,2.7E1,6.3333335E0,1E0,6.94E0,7.266667E0,-3.7105735E-2,3.65E1,6.74E0,6.04E0,5E0,5E0,5E0,6.46E0,-3.0743582E-2,3.261939E-3,-2.717119E-2,5.0551654E-3,-3.4786128E-2,2.597708E-3,2.1733688E-2,-1.43435355E-2,1.4852624E-2,2.1588593E-3,1.693064E-2,8.211593E-3,-2.1943406E-3,2.2209512E-2],"split_indices":[28,55,17,55,0,56,55,0,28,56,56,12,63,12,56,0,0,0,0,0,0,0,0,0,0,0,0,0,0],"split_type":[0,0,0,0,0,0,0,0,0,0,0,0,0,0,0,0,0,0,0,0,0,0,0,0,0,0,0,0,0],"sum_hessian":[1.4269436E4,4.752603E3,9.516833E3,2.2712756E3,2.4813274E3,9.9329724E2,8.523535E3,2.1047253E3,1.6655031E2,1.2059283E3,1.275399E3,8.188431E2,1.744542E2,6.629065E3,1.8944702E3,1.5994827E2,6.6020393E0,1.0901448E3,1.15783516E2,6.181069E1,1.2135884E3,6.507018E1,7.537729E2,1.223536E2,5.2100597E1,2.7162617E3,3.9128035E3,7.811826E1,1.8163519E3],"tree_param":{"num_deleted":"0","num_feature":"105","num_nodes":"29","size_leaf_vector":"1"}},{"base_weights":[-1.7691376E-2,-8.559447E-1,5.7963127E-1,-1.6482813E0,-3.0933493E-1,2.5365975E-1,8.0131435E-1,-1.7545266E0,-7.0428526E-1,-1.043575E0,2.0455964E-1,6.8177295E-1,-6.515056E-2,7.1413785E-1,1.2279645E0,-3.526409E-2,-1.8931002E-3,2.5299853E-3,-2.2965653E-2,-2.5683856E-2,-4.7372314E-3,-2.6082885E-2,5.152011E-3,1.947559E-2,9.457824E-3,-1.2689944E-2,1.3097419E-2,1.1397192E-2,1.7467897E-2,2.4912897E-2,1.30617535E-2],"categories":[],"categories_nodes":[],"categories_segments":[],"categories_sizes":[],"default_left":[0,0,0,0,0,0,0,0,0,0,0,0,0,0,0,0,0,0,0,0,0,0,0,0,0,0,0,0,0,0,0],"id":5,"left_children":[1,3,5,7,9,11,13,15,17,19,21,23,25,27,29,-1,-1,-1,-1,-1,-1,-1,-1,-1,-1,-1,-1,-1,-1,-1,-1],"loss_changes":[7.0985986E3,2.5504849E3,5.960664E2,2.3271631E2,1.321739E3,4.5939105E2,1.767644E2,2.8401367E1,9.497763E1,2.7682727E2,1.6556755E2,8.382678E1,7.927894E2,9.030591E1,2.4320068E0,0E0,0E0,0E0,0E0,0E0,0E0,0E0,0E0,0E0,0E0,0E0,0E0,0E0,0E0,0E0,0E0],"parents":[2147483647,0,0,1,1,2,2,3,3,4,4,5,5,6,6,7,7,8,8,9,9,10,10,11,11,12,12,13,13,14,14],"right_children":[2,4,6,8,10,12,14,16,18,20,22,24,26,28,30,-1,-1,-1,-1,-1,-1,-1,-1,-1,-1,-1,-1,-1,-1,-1,-1],"split_conditions":[2.15E2,6.6E0,6.8E0,1.82E2,1E0,5E0,7.5333333E0,3E0,1E0,1.6E1,6.04E0,1E0,2E0,2E0,9.1E1,-3.526409E-2,-1.8931002E-3,2.5299853E-3,-2.2965653E-2,-2.5683856E-2,-4.7372314E-3,-2.6082885E-2,5.152011E-3,1.947559E-2,9.457824E-3,-1.2689944E-2,1.3097419E-2,1.1397192E-2,1.7467897E-2,2.4912897E-2,1.30617535E-2],"split_indices":[48,55,56,48,0,12,55,49,54,16,56,22,26,26,42,0,0,0,0,0,0,0,0,0,0,0,0,0,0,0,0],"split_type":[0,0,0,0,0,0,0,0,0,0,0,0,0,0,0,0,0,0,0,0,0,0,0,0,0,0,0,0,0,0,0],"sum_hessian":[1.4166627E4,5.894327E3,8.272301E3,2.4014316E3,3.4928953E3,3.3546802E3,4.91762E3,2.1536853E3,2.477463E2,1.4368094E3,2.056086E3,1.4307915E3,1.9238887E3,4.0963374E3,8.212828E2,2.1415754E3,1.2109884E1,8.674912E1,1.609972E2,1.1034772E3,3.333322E2,6.518424E1,1.9909017E3,5.8704047E2,8.4375104E2,1.0754639E3,8.484248E2,2.1645457E3,1.9317917E3,7.894303E2,3.185253E1],"tree_param":{"num_deleted":"0","num_feature":"105","num_nodes":"31","size_leaf_vector":"1"}},{"base_weights":[-3.3408732E-3,-1.1125817E0,5.5316275E-1,-1.7691603E0,-5.250686E-1,6.650144E-1,-2.6331037E-1,-1.794037E0,-1.4060061E0,-1.1615837E0,7.793327E-2,5.2720594E-1,9.099226E-1,-5.111083E-1,5.8637196E-1,-3.592697E-2,-8.460849E-3,-1.2338603E-3,-3.0592596E-2,-2.5875207E-2,8.416201E-3,-3.345541E-2,3.2570506E-3,1.5676897E-2,6.881075E-3,1.661929E-2,2.4963537E-2,-2.5557062E-2,-6.8619186E-3,-2.3327472E-2,1.3500972E-2],"categories":[],"categories_nodes":[],"categories_segments":[],"categories_sizes":[],"default_left":[0,0,0,0,0,0,0,0,0,0,0,0,0,0,0,0,0,0,0,0,0,0,0,0,0,0,0,0,0,0,0],"id":6,"left_children":[1,3,5,7,9,11,13,15,17,19,21,23,25,27,29,-1,-1,-1,-1,-1,-1,-1,-1,-1,-1,-1,-1,-1,-1,-1,-1],"loss_changes":[8.743952E3,1.8186567E3,8.625908E2,4.352539E0,9.6322797E2,2.7620972E2,2.4121255E2,5.3564453E-1,2.5987762E1,2.5877344E2,1.9171506E2,2.477854E2,7.2278564E1,1.1023517E2,4.3633064E1,0E0,0E0,0E0,0E0,0E0,0E0,0E0,0E0,0E0,0E0,0E0,0E0,0E0,0E0,0E0,0E0],"parents":[2147483647,0,0,1,1,2,2,3,3,4,4,5,5,6,6,7,7,8,8,9,9,10,10,11,11,12,12,13,13,14,14],"right_children":[2,4,6,8,10,12,14,16,18,20,22,24,26,28,30,-1,-1,-1,-1,-1,-1,-1,-1,-1,-1,-1,-1,-1,-1,-1,-1],"split_conditions":[4.5E1,6.6E0,1.6E1,6.3333335E0,1E0,7.02E0,7.0666666E0,3.194706E0,4E0,6.82E0,6.04E0,5E0,7.633333E0,6.6E0,6.36E0,-3.592697E-2,-8.460849E-3,-1.2338603E-3,-3.0592596E-2,-2.5875207E-2,8.416201E-3,-3.345541E-2,3.2570506E-3,1.5676897E-2,6.881075E-3,1.661929E-2,2.4963537E-2,-2.5557062E-2,-6.8619186E-3,-2.3327472E-2,1.3500972E-2],"split_indices":[28,55,12,55,0,56,55,74,31,56,56,12,55,55,56,0,0,0,0,0,0,0,0,0,0,0,0,0,0,0,0],"split_type":[0,0,0,0,0,0,0,0,0,0,0,0,0,0,0,0,0,0,0,0,0,0,0,0,0,0,0,0,0,0,0],"sum_hessian":[1.4154022E4,4.7276064E3,9.426416E3,2.2270244E3,2.5005818E3,8.292542E3,1.1338739E3,2.063235E3,1.637893E2,1.21504E3,1.2855417E3,5.319267E3,2.9732751E3,8.8031244E2,2.5356146E2,2.0574854E3,5.749795E0,1.5106115E1,1.486832E2,1.1227971E3,9.224288E1,5.4601635E1,1.2309402E3,2.2061204E3,3.1131467E3,2.426987E3,5.462882E2,1.5122018E2,7.290923E2,8.741339E0,2.4482013E2],"tree_param":{"num_deleted":"0","num_feature":"105","num_nodes":"31","size_leaf_vector":"1"}},{"base_weights":[1.194882E-2,-1.1316309E0,5.738154E-1,-1.769939E0,-6.189474E-1,-2.847859E-1,6.7349887E-1,-3.5443712E-2,-7.0044384E-3,-6.8957514E-1,3.4462264E-1,1.1009051E0,-4.4385806E-1,5.6128323E-1,1.0115445E0,-2.0572584E-2,-7.863282E-3,9.344855E-3,-8.488608E-3,3.4563923E-3,2.4725508E-2,-1.4377395E-2,1.0848113E-2,7.707748E-3,1.5545024E-2,1.8650413E-2,2.4779305E-2],"categories":[],"categories_nodes":[],"categories_segments":[],"categories_sizes":[],"default_left":[0,0,0,0,0,0,0,0,0,0,0,0,0,0,0,0,0,0,0,0,0,0,0,0,0,0,0],"id":7,"left_children":[1,3,5,7,9,11,13,-1,-1,15,17,19,21,23,25,-1,-1,-1,-1,-1,-1,-1,-1,-1,-1,-1,-1],"loss_changes":[9.203758E3,1.5363716E3,8.235117E2,1.4682617E0,1.8021051E2,2.2258923E2,3.2217334E2,0E0,0E0,2.4266138E2,1.8165909E1,1.0581306E1,2.4698933E2,2.4339136E2,3.0460693E1,0E0,0E0,0E0,0E0,0E0,0E0,0E0,0E0,0E0,0E0,0E0,0E0],"parents":[2147483647,0,0,1,1,2,2,3,3,4,4,5,5,6,6,9,9,10,10,11,11,12,12,13,13,14,14],"right_children":[2,4,6,8,10,12,14,-1,-1,16,18,20,22,24,26,-1,-1,-1,-1,-1,-1,-1,-1,-1,-1,-1,-1],"split_conditions":[4.5E1,6.46E0,6.1E1,3.4831588E0,6.84E0,5E0,7.16E0,-3.5443712E-2,-7.0044384E-3,1E0,6.2E1,-2.1569033E-1,6.9E0,2E0,7.56E0,-2.0572584E-2,-7.863282E-3,9.344855E-3,-8.488608E-3,3.4563923E-3,2.4725508E-2,-1.4377395E-2,1.0848113E-2,7.707748E-3,1.5545024E-2,1.8650413E-2,2.4779305E-2],"split_indices":[28,56,18,74,56,12,56,0,0,1,29,71,56,26,56,0,0,0,0,0,0,0,0,0,0,0,0],"split_type":[0,0,0,0,0,0,0,0,0,0,0,0,0,0,0,0,0,0,0,0,0,0,0,0,0,0,0],"sum_hessian":[1.4314856E4,4.713834E3,9.601022E3,2.0933418E3,2.6204924E3,9.9671594E2,8.604307E3,2.0880916E3,5.250148E0,2.4438245E3,1.7666792E2,9.89411E1,8.9777484E2,6.47212E3,2.1321868E3,1.1325806E3,1.3112439E3,1.5518695E2,2.1480959E1,1.4983833E1,8.395727E1,7.038746E2,1.9390024E2,3.5772058E3,2.8949146E3,1.6045426E3,5.2764404E2],"tree_param":{"num_deleted":"0","num_feature":"105","num_nodes":"27","size_leaf_vector":"1"}},{"base_weights":[-1.5480234E-2,-1.1037918E0,5.300445E-1,-3.48584E-2,-6.020352E-1,-3.4515274E-1,6.318363E-1,-1.1975259E0,2.467415E-3,-5.435795E-1,4.763464E-1,5.243098E-1,9.617049E-1,-2.6623098E-2,1.0487804E-3,2.2965888E-3,-1.2202186E-2,-1.9434875E-2,-5.207184E-3,-0E0,1.3452493E-2,1.5318937E-2,7.0769247E-3,1.7312465E-2,2.4746725E-2],"categories":[],"categories_nodes":[],"categories_segments":[],"categories_sizes":[],"default_left":[0,0,0,0,0,0,0,0,0,0,0,0,0,0,0,0,0,0,0,0,0,0,0,0,0],"id":8,"left_children":[1,3,5,-1,7,9,11,13,15,17,19,21,23,-1,-1,-1,-1,-1,-1,-1,-1,-1,-1,-1,-1],"loss_changes":[8.388117E3,1.5053013E3,8.396907E2,0E0,9.5563824E2,1.6153748E2,2.9508472E2,2.2486316E2,9.070319E1,9.3880875E1,1.7789814E1,2.6001697E2,4.7220703E1,0E0,0E0,0E0,0E0,0E0,0E0,0E0,0E0,0E0,0E0,0E0,0E0],"parents":[2147483647,0,0,1,1,2,2,4,4,5,5,6,6,7,7,8,8,9,9,10,10,11,11,12,12],"right_children":[2,4,6,-1,8,10,12,14,16,18,20,22,24,-1,-1,-1,-1,-1,-1,-1,-1,-1,-1,-1,-1],"split_conditions":[4.35E1,6.46E0,2.8E1,-3.48584E-2,1E0,6.9E0,7.16E0,6.72E0,3.7E1,1E0,3E0,1E0,7.56E0,-2.6623098E-2,1.0487804E-3,2.2965888E-3,-1.2202186E-2,-1.9434875E-2,-5.207184E-3,-0E0,1.3452493E-2,1.5318937E-2,7.0769247E-3,1.7312465E-2,2.4746725E-2],"split_indices":[28,56,17,0,97,56,56,56,17,97,57,103,56,0,0,0,0,0,0,0,0,0,0,0,0],"split_type":[0,0,0,0,0,0,0,0,0,0,0,0,0,0,0,0,0,0,0,0,0,0,0,0,0],"sum_hessian":[1.411763E4,4.712666E3,9.404964E3,2.0662961E3,2.6463699E3,9.776275E2,8.427337E3,1.3314846E3,1.3148853E3,7.897728E2,1.878547E2,6.367663E3,2.059673E3,1.2033176E3,1.2816702E2,1.1158967E3,1.9898845E2,3.081837E2,4.815891E2,5.681041E1,1.310443E2,2.624304E3,3.7433594E3,1.5453235E3,5.143497E2],"tree_param":{"num_deleted":"0","num_feature":"105","num_nodes":"25","size_leaf_vector":"1"}},{"base_weights":[-7.941718E-3,-1.0886391E0,5.2658993E-1,-1.6941462E0,-5.389288E-1,-3.430908E-1,6.2811184E-1,-3.4316067E-2,-1.364407E0,2.0764241E-2,-1.1194825E0,1.0831522E0,-4.6990252E-1,4.924654E-1,8.6592185E-1,-9.803176E-3,-3.0135697E-2,-3.2167885E-2,2.157272E-3,-2.4832908E-2,7.7649723E-3,7.44073E-4,2.3972029E-2,-3.0340496E-2,-4.461407E-3,1.5041226E-2,6.4086104E-3,1.572147E-2,2.3809679E-2],"categories":[],"categories_nodes":[],"categories_segments":[],"categories_sizes":[],"default_left":[0,0,0,0,0,0,0,0,0,0,0,0,0,0,0,0,0,0,0,0,0,0,0,0,0,0,0,0,0],"id":9,"left_children":[1,3,5,7,9,11,13,-1,15,17,19,21,23,25,27,-1,-1,-1,-1,-1,-1,-1,-1,-1,-1,-1,-1,-1,-1],"loss_changes":[8.1539243E3,1.5481216E3,8.350874E2,1.065918E0,7.994934E2,1.8085812E2,2.6936646E2,0E0,1.4732147E1,1.7743318E2,2.2555615E2,8.400452E0,2.324516E2,2.389076E2,7.27251E1,0E0,0E0,0E0,0E0,0E0,0E0,0E0,0E0,0E0,0E0,0E0,0E0,0E0,0E0],"parents":[2147483647,0,0,1,1,2,2,3,3,4,4,5,5,6,6,8,8,9,9,10,10,11,11,12,12,13,13,14,14],"right_children":[2,4,6,8,10,12,14,-1,16,18,20,22,24,26,28,-1,-1,-1,-1,-1,-1,-1,-1,-1,-1,-1,-1,-1,-1],"split_conditions":[4.35E1,6.6E0,2.8E1,6.3333335E0,1E0,5E0,7.02E0,-3.4316067E-2,5E0,6.04E0,6.82E0,5.4E1,6.6E0,5E0,7.633333E0,-9.803176E-3,-3.0135697E-2,-3.2167885E-2,2.157272E-3,-2.4832908E-2,7.7649723E-3,7.44073E-4,2.3972029E-2,-3.0340496E-2,-4.461407E-3,1.5041226E-2,6.4086104E-3,1.572147E-2,2.3809679E-2],"split_indices":[28,55,17,55,98,12,56,0,31,56,56,29,55,12,55,0,0,0,0,0,0,0,0,0,0,0,0,0,0],"split_type":[0,0,0,0,0,0,0,0,0,0,0,0,0,0,0,0,0,0,0,0,0,0,0,0,0,0,0,0,0],"sum_hessian":[1.4104333E4,4.6664844E3,9.437848E3,2.2147285E3,2.451756E3,9.8428564E2,8.4535625E3,2.0556626E3,1.5906593E2,1.2498832E3,1.201873E3,7.664718E1,9.076385E2,5.3955234E3,3.0580388E3,2.637171E1,1.3269421E2,5.841636E1,1.1914668E3,1.1132207E3,8.865229E1,9.137377E0,6.75098E1,1.6745828E2,7.401802E2,2.1414558E3,3.2540679E3,2.4704526E3,5.8758624E2],"tree_param":{"num_deleted":"0","num_feature":"105","num_nodes":"29","size_leaf_vector":"1"}},{"base_weights":[1.0441992E-2,-1.0597881E0,5.378727E-1,-1.6704874E0,-5.126189E-1,6.4585006E-1,-2.7763143E-1,-1.6725249E0,-6.9089183E-3,-1.0997083E0,3.0123277E-2,5.278273E-1,8.8881344E-1,-5.368394E-1,4.736521E-1,-3.3490036E-2,-7.275267E-3,-2.4727117E-2,3.0085363E-3,-3.1959575E-2,2.4024954E-3,1.5576367E-2,6.7628883E-3,1.5990054E-2,2.4174614E-2,-3.0316364E-2,-8.331839E-3,-1.9860255E-2,1.1154172E-2],"categories":[],"categories_nodes":[],"categories_segments":[],"categories_sizes":[],"default_left":[0,0,0,0,0,0,0,0,0,0,0,0,0,0,0,0,0,0,0,0,0,0,0,0,0,0,0,0,0],"id":10,"left_children":[1,3,5,7,9,11,13,15,-1,17,19,21,23,25,27,-1,-1,-1,-1,-1,-1,-1,-1,-1,-1,-1,-1,-1,-1],"loss_changes":[8.0240283E3,1.5615557E3,8.398657E2,1.0712891E0,7.924304E2,2.3746948E2,2.1865152E2,6.3134766E-1,0E0,2.0595251E2,1.8912885E2,2.678496E2,7.145752E1,9.297275E1,3.7829865E1,0E0,0E0,0E0,0E0,0E0,0E0,0E0,0E0,0E0,0E0,0E0,0E0,0E0,0E0],"parents":[2147483647,0,0,1,1,2,2,3,3,4,4,5,5,6,6,7,7,9,9,10,10,11,11,12,12,13,13,14,14],"right_children":[2,4,6,8,10,12,14,16,-1,18,20,22,24,26,28,-1,-1,-1,-1,-1,-1,-1,-1,-1,-1,-1,-1,-1,-1],"split_conditions":[4.5E1,6.6E0,1.6E1,2.6178E0,1E0,7.06E0,7.0333333E0,6.84E0,-6.9089183E-3,6.74E0,6.36E0,1E0,7.633333E0,6.46E0,6.36E0,-3.3490036E-2,-7.275267E-3,-2.4727117E-2,3.0085363E-3,-3.1959575E-2,2.4024954E-3,1.5576367E-2,6.7628883E-3,1.5990054E-2,2.4174614E-2,-3.0316364E-2,-8.331839E-3,-1.9860255E-2,1.1154172E-2],"split_indices":[28,55,12,74,0,56,55,56,0,56,56,103,55,56,56,0,0,0,0,0,0,0,0,0,0,0,0,0,0],"split_type":[0,0,0,0,0,0,0,0,0,0,0,0,0,0,0,0,0,0,0,0,0,0,0,0,0,0,0,0,0],"sum_hessian":[1.4205975E4,4.6874814E3,9.518493E3,2.2094294E3,2.478052E3,8.407552E3,1.1109414E3,2.2039746E3,5.4549E0,1.188813E3,1.289239E3,5.672187E3,2.7353645E3,8.280171E2,2.8292438E2,2.1984924E3,5.482292E0,1.0724432E3,1.1636976E2,6.2565235E1,1.2266737E3,2.4325723E3,3.239615E3,2.1545142E3,5.8085046E2,8.3321434E1,7.446956E2,1.1760242E1,2.7116415E2],"tree_param":{"num_deleted":"0","num_feature":"105","num_nodes":"29","size_leaf_vector":"1"}},{"base_weights":[1.3051211E-2,-1.035895E0,5.258423E-1,-1.6445318E0,-4.9282527E-1,-3.5675633E-1,6.25851E-1,-1.6685978E0,-1.2869501E0,-1.0584034E0,4.295203E-2,-5.507403E-1,4.1335708E-1,5.2766657E-1,9.618706E-1,-3.341674E-2,-6.1923424E-3,2.0964413E-3,-2.9481357E-2,-2.3304546E-2,8.705977E-3,-3.1271998E-2,2.5616076E-3,-1.931535E-2,-5.4508876E-3,2.8557633E-3,1.923188E-2,6.7466036E-3,1.502018E-2,-0E0,2.0119071E-2],"categories":[],"categories_nodes":[],"categories_segments":[],"categories_sizes":[],"default_left":[0,0,0,0,0,0,0,0,0,0,0,0,0,0,0,0,0,0,0,0,0,0,0,0,0,0,0,0,0,0,0],"id":11,"left_children":[1,3,5,7,9,11,13,15,17,19,21,23,25,27,29,-1,-1,-1,-1,-1,-1,-1,-1,-1,-1,-1,-1,-1,-1,-1,-1],"loss_changes":[7.6029033E3,1.5277319E3,8.394675E2,5.112793E0,7.4682983E2,1.4596492E2,2.774348E2,1.6044922E0,4.4403656E1,1.9443225E2,1.729035E2,8.713875E1,2.7386189E1,2.7887146E2,8.199487E1,0E0,0E0,0E0,0E0,0E0,0E0,0E0,0E0,0E0,0E0,0E0,0E0,0E0,0E0,0E0,0E0],"parents":[2147483647,0,0,1,1,2,2,3,3,4,4,5,5,6,6,7,7,8,8,9,9,10,10,11,11,12,12,13,13,14,14],"right_children":[2,4,6,8,10,12,14,16,18,20,22,24,26,28,30,-1,-1,-1,-1,-1,-1,-1,-1,-1,-1,-1,-1,-1,-1,-1,-1],"split_conditions":[4.35E1,6.6E0,2.8E1,6.3333335E0,1E0,6.9E0,7.266667E0,3.194706E0,4E0,6.86E0,6.04E0,1E0,7.28E0,2E0,6.46E0,-3.341674E-2,-6.1923424E-3,2.0964413E-3,-2.9481357E-2,-2.3304546E-2,8.705977E-3,-3.1271998E-2,2.5616076E-3,-1.931535E-2,-5.4508876E-3,2.8557633E-3,1.923188E-2,6.7466036E-3,1.502018E-2,-0E0,2.0119071E-2],"split_indices":[28,55,17,55,97,56,55,74,31,56,56,97,56,26,56,0,0,0,0,0,0,0,0,0,0,0,0,0,0,0,0],"split_type":[0,0,0,0,0,0,0,0,0,0,0,0,0,0,0,0,0,0,0,0,0,0,0,0,0,0,0,0,0,0,0],"sum_hessian":[1.4125557E4,4.635763E3,9.489794E3,2.1802737E3,2.4554893E3,9.635363E2,8.526257E3,2.0229935E3,1.5728015E2,1.1930593E3,1.26243E3,7.718402E2,1.9169609E2,6.6105054E3,1.915752E3,2.0177855E3,5.207964E0,1.8266874E1,1.3901329E2,1.1150819E3,7.797745E1,5.856676E1,1.2038633E3,3.0334378E2,4.6849646E2,1.337924E2,5.790369E1,3.5781616E3,3.0323435E3,8.362688E1,1.8321251E3],"tree_param":{"num_deleted":"0","num_feature":"105","num_nodes":"31","size_leaf_vector":"1"}},{"base_weights":[1.14172585E-2,-7.4247134E-1,5.3417236E-1,-1.4846002E0,-2.502657E-1,-4.5300987E-2,6.267701E-1,-1.56153E0,-4.25256E-1,-9.280759E-1,2.2051243E-1,8.840482E-1,-3.0320397E-1,3.9475685E-1,7.5805825E-1,-3.2566443E-2,-2.3368888E-2,3.3294891E-3,-1.8052753E-2,-2.2482883E-2,-3.5505893E-3,1.697953E-3,1.1512179E-2,2.0350093E-2,2.6735754E-3,-2.2376891E-2,4.203148E-3,1.60537E-2,4.4665323E-3,5.290639E-3,1.6176326E-2],"categories":[],"categories_nodes":[],"categories_segments":[],"categories_sizes":[],"default_left":[0,0,0,0,0,0,0,0,0,0,0,0,0,0,0,0,0,0,0,0,0,0,0,0,0,0,0,0,0,0,0],"id":12,"left_children":[1,3,5,7,9,11,13,15,17,19,21,23,25,27,29,-1,-1,-1,-1,-1,-1,-1,-1,-1,-1,-1,-1,-1,-1,-1,-1],"loss_changes":[5.5897036E3,2.117686E3,4.5020068E2,1.8326416E2,1.1180557E3,2.7814728E2,2.1741089E2,4.4256348E1,4.793036E1,2.0897974E2,9.8665405E1,2.3387894E1,3.8331992E2,1.8157089E2,1.1322656E2,0E0,0E0,0E0,0E0,0E0,0E0,0E0,0E0,0E0,0E0,0E0,0E0,0E0,0E0,0E0,0E0],"parents":[2147483647,0,0,1,1,2,2,3,3,4,4,5,5,6,6,7,7,8,8,9,9,10,10,11,11,12,12,13,13,14,14],"right_children":[2,4,6,8,10,12,14,16,18,20,22,24,26,28,30,-1,-1,-1,-1,-1,-1,-1,-1,-1,-1,-1,-1,-1,-1,-1,-1],"split_conditions":[2.15E2,6.6E0,1.36E2,1.93E2,1E0,5E0,6.8333335E0,2.95E1,5E0,2.5E1,1E0,1.13E2,6.766667E0,1E0,5E0,-3.2566443E-2,-2.3368888E-2,3.3294891E-3,-1.8052753E-2,-2.2482883E-2,-3.5505893E-3,1.697953E-3,1.1512179E-2,2.0350093E-2,2.6735754E-3,-2.2376891E-2,4.203148E-3,1.60537E-2,4.4665323E-3,5.290639E-3,1.6176326E-2],"split_indices":[48,55,18,48,0,12,55,29,12,16,20,18,55,0,50,0,0,0,0,0,0,0,0,0,0,0,0,0,0,0,0],"split_type":[0,0,0,0,0,0,0,0,0,0,0,0,0,0,0,0,0,0,0,0,0,0,0,0,0,0,0,0,0,0,0],"sum_hessian":[1.4173992E4,5.8022676E3,8.371725E3,2.3088938E3,3.4933738E3,1.1523168E3,7.219408E3,2.1494834E3,1.5941042E2,1.4307279E3,2.062646E3,2.4683485E2,9.0548193E2,2.618909E3,4.600499E3,1.8216901E3,3.277933E2,7.169888E1,8.771153E1,1.1313577E3,2.993703E2,1.4991266E3,5.6351935E2,2.0692044E2,3.991441E1,3.4824026E2,5.5724164E2,7.677526E2,1.8511564E3,4.337603E2,4.166739E3],"tree_param":{"num_deleted":"0","num_feature":"105","num_nodes":"31","size_leaf_vector":"1"}},{"base_weights":[-1.3673338E-3,-1.0176328E0,4.9232218E-1,-1.6006433E0,-5.039667E-1,-1.6574678E-1,6.0235476E-1,-1.6269183E0,-1.2333105E0,1.7176164E-2,-1.0631121E0,-4.084942E-1,5.2427095E-1,5.079971E-1,9.220008E-1,-3.2583233E-2,-5.8688805E-3,2.1791316E-3,-2.8219396E-2,-3.117295E-2,2.0724349E-3,-2.4301592E-2,1.1974938E-3,-1.1328378E-2,1.636988E-2,7.6947366E-3,2.3908507E-2,1.4877238E-2,7.105868E-3,2.1562872E-3,1.9237008E-2],"categories":[],"categories_nodes":[],"categories_segments":[],"categories_sizes":[],"default_left":[0,0,0,0,0,0,0,0,0,0,0,0,0,0,0,0,0,0,0,0,0,0,0,0,0,0,0,0,0,0,0],"id":13,"left_children":[1,3,5,7,9,11,13,15,17,19,21,23,25,27,29,-1,-1,-1,-1,-1,-1,-1,-1,-1,-1,-1,-1,-1,-1,-1,-1],"loss_changes":[7.041453E3,1.3681523E3,6.8480786E2,7.8222656E0,7.144165E2,2.2801439E2,2.4035083E2,1.6240234E0,4.176976E1,1.7248587E2,2.0321155E2,1.971318E2,2.9262566E1,2.2314929E2,5.798706E1,0E0,0E0,0E0,0E0,0E0,0E0,0E0,0E0,0E0,0E0,0E0,0E0,0E0,0E0,0E0,0E0],"parents":[2147483647,0,0,1,1,2,2,3,3,4,4,5,5,6,6,7,7,8,8,9,9,10,10,11,11,12,12,13,13,14,14],"right_children":[2,4,6,8,10,12,14,16,18,20,22,24,26,28,30,-1,-1,-1,-1,-1,-1,-1,-1,-1,-1,-1,-1,-1,-1,-1,-1],"split_conditions":[4.5E1,6.6E0,1E0,6.3333335E0,1E0,7E0,7.266667E0,2.6178E0,4E0,6.42E0,6.64E0,2E0,7.633333E0,1E0,6.42E0,-3.2583233E-2,-5.8688805E-3,2.1791316E-3,-2.8219396E-2,-3.117295E-2,2.0724349E-3,-2.4301592E-2,1.1974938E-3,-1.1328378E-2,1.636988E-2,7.6947366E-3,2.3908507E-2,1.4877238E-2,7.105868E-3,2.1562872E-3,1.9237008E-2],"split_indices":[28,55,16,55,98,55,55,74,31,56,56,26,55,103,56,0,0,0,0,0,0,0,0,0,0,0,0,0,0,0,0],"split_type":[0,0,0,0,0,0,0,0,0,0,0,0,0,0,0,0,0,0,0,0,0,0,0,0,0,0,0,0,0,0,0],"sum_hessian":[1.40236E4,4.584033E3,9.439566E3,2.141222E3,2.4428115E3,1.3505781E3,8.088988E3,1.9797451E3,1.6147664E2,1.2659553E3,1.1768561E3,1.00167816E3,3.4889996E2,6.257798E3,1.83119E3,1.9745646E3,5.180614E0,1.8442581E1,1.4303406E2,6.0805573E1,1.2051498E3,1.0370045E3,1.3985158E2,8.9056146E2,1.11116646E2,2.965938E2,5.2306152E1,2.4490747E3,3.8087231E3,8.747948E1,1.7437104E3],"tree_param":{"num_deleted":"0","num_feature":"105","num_nodes":"31","size_leaf_vector":"1"}},{"base_weights":[-1.5597156E-3,-7.3023665E-1,5.0540954E-1,-1.4590893E0,-2.526271E-1,2.0221056E-1,6.929042E-1,-1.5510988E0,-6.4271784E-1,-8.902541E-1,1.891999E-1,6.201038E-1,-1.09780796E-1,5.521871E-1,9.8470163E-1,-3.163393E-2,-2.2080157E-2,-6.3483855E-3,-2.7748758E-2,-2.2028096E-2,-3.9605307E-3,-2.3950484E-2,4.800925E-3,2.0960765E-2,8.667719E-3,-1.2104575E-2,1.1041407E-2,6.4050816E-3,1.3636893E-2,1.7545715E-2,2.314886E-2],"categories":[],"categories_nodes":[],"categories_segments":[],"categories_sizes":[],"default_left":[0,0,0,0,0,0,0,0,0,0,0,0,0,0,0,0,0,0,0,0,0,0,0,0,0,0,0,0,0,0,0],"id":14,"left_children":[1,3,5,7,9,11,13,15,17,19,21,23,25,27,29,-1,-1,-1,-1,-1,-1,-1,-1,-1,-1,-1,-1,-1,-1,-1,-1],"loss_changes":[5.196626E3,2.0057542E3,4.6992578E2,1.6431934E2,9.8585913E2,4.1524734E2,2.0601758E2,1.6589844E1,5.44525E1,2.0690198E2,1.4622711E2,1.0497455E2,5.993974E2,1.0221338E2,2.364148E1,0E0,0E0,0E0,0E0,0E0,0E0,0E0,0E0,0E0,0E0,0E0,0E0,0E0,0E0,0E0,0E0],"parents":[2147483647,0,0,1,1,2,2,3,3,4,4,5,5,6,6,7,7,8,8,9,9,10,10,11,11,12,12,13,13,14,14],"right_children":[2,4,6,8,10,12,14,16,18,20,22,24,26,28,30,-1,-1,-1,-1,-1,-1,-1,-1,-1,-1,-1,-1,-1,-1,-1,-1],"split_conditions":[2.15E2,6.6E0,6.78E0,1.82E2,1E0,5E0,7.3E0,5.2E0,2E0,1.6E1,6.42E0,7.6872283E-1,2E0,2E0,7.633333E0,-3.163393E-2,-2.2080157E-2,-6.3483855E-3,-2.7748758E-2,-2.2028096E-2,-3.9605307E-3,-2.3950484E-2,4.800925E-3,2.0960765E-2,8.667719E-3,-1.2104575E-2,1.1041407E-2,6.4050816E-3,1.3636893E-2,1.7545715E-2,2.314886E-2],"split_indices":[48,55,56,48,0,12,55,55,54,16,56,69,26,27,55,0,0,0,0,0,0,0,0,0,0,0,0,0,0,0,0],"split_type":[0,0,0,0,0,0,0,0,0,0,0,0,0,0,0,0,0,0,0,0,0,0,0,0,0,0,0,0,0,0,0],"sum_hessian":[1.4056504E4,5.767103E3,8.2894E3,2.2781619E3,3.4889412E3,3.1733984E3,5.116002E3,2.0422627E3,2.3589915E2,1.4268939E3,2.0620474E3,1.355738E3,1.8176604E3,3.4635977E3,1.6524043E3,1.8974795E3,1.4478316E2,1.700807E2,6.581845E1,1.0900078E3,3.368861E2,6.825003E1,1.9937974E3,4.032099E2,9.525282E2,1.0406158E3,7.7704456E2,1.2509487E3,2.212649E3,1.0411608E3,6.112436E2],"tree_param":{"num_deleted":"0","num_feature":"105","num_nodes":"31","size_leaf_vector":"1"}},{"base_weights":[-9.933759E-4,-9.8183155E-1,4.732437E-1,-1.5673779E0,-4.711528E-1,-3.015431E-1,5.6080157E-1,-3.1817842E-2,-1.2470059E0,-1.0253432E0,4.819104E-2,-5.563987E-1,4.4860977E-1,4.0223897E-1,7.420989E-1,-4.883394E-3,-2.824797E-2,-2.2802707E-2,6.8988106E-3,-3.0177806E-2,2.5387933E-3,-1.8907363E-2,-5.9158676E-3,2.6263522E-3,1.3575022E-2,-3.7986266E-3,9.673881E-3,2.1099066E-2,1.2212475E-2],"categories":[],"categories_nodes":[],"categories_segments":[],"categories_sizes":[],"default_left":[0,0,0,0,0,0,0,0,0,0,0,0,0,0,0,0,0,0,0,0,0,0,0,0,0,0,0,0,0],"id":15,"left_children":[1,3,5,7,9,11,13,-1,15,17,19,21,23,25,27,-1,-1,-1,-1,-1,-1,-1,-1,-1,-1,-1,-1,-1,-1],"loss_changes":[6.5218335E3,1.3608247E3,6.421675E2,3.2573242E0,7.061209E2,1.8519055E2,2.4151855E2,0E0,2.50484E1,1.893125E2,1.550746E2,7.044272E1,1.6679565E1,2.1996112E2,1.5773877E2,0E0,0E0,0E0,0E0,0E0,0E0,0E0,0E0,0E0,0E0,0E0,0E0,0E0,0E0],"parents":[2147483647,0,0,1,1,2,2,3,3,4,4,5,5,6,6,8,8,9,9,10,10,11,11,12,12,13,13,14,14],"right_children":[2,4,6,8,10,12,14,-1,16,18,20,22,24,26,28,-1,-1,-1,-1,-1,-1,-1,-1,-1,-1,-1,-1,-1,-1],"split_conditions":[4.5E1,6.6E0,6.1E1,6.3333335E0,1E0,6.82E0,2E0,-3.1817842E-2,4E0,6.82E0,6.04E0,1E0,7.0333333E0,6.36E0,6.9E1,-4.883394E-3,-2.824797E-2,-2.2802707E-2,6.8988106E-3,-3.0177806E-2,2.5387933E-3,-1.8907363E-2,-5.9158676E-3,2.6263522E-3,1.3575022E-2,-3.7986266E-3,9.673881E-3,2.1099066E-2,1.2212475E-2],"split_indices":[28,55,18,55,0,56,26,0,50,56,56,0,55,56,52,0,0,0,0,0,0,0,0,0,0,0,0,0,0],"split_type":[0,0,0,0,0,0,0,0,0,0,0,0,0,0,0,0,0,0,0,0,0,0,0,0,0,0,0,0,0],"sum_hessian":[1.4009841E4,4.5650205E3,9.44482E3,2.1208923E3,2.444128E3,9.565759E2,8.488245E3,1.9544888E3,1.6640364E2,1.1809711E3,1.263157E3,7.1596106E2,2.4061485E2,4.539558E3,3.9486868E3,2.6167591E1,1.4023605E2,1.0911335E3,8.983752E1,5.5825584E1,1.2073314E3,2.8042874E2,4.3553235E2,1.0628272E2,1.3433214E2,5.4663586E2,3.9929224E3,1.1557562E3,2.7929307E3],"tree_param":{"num_deleted":"0","num_feature":"105","num_nodes":"29","size_leaf_vector":"1"}},{"base_weights":[4.3302514E-3,-9.7224396E-1,4.6844128E-1,-1.5572622E0,-4.5830926E-1,5.629881E-1,-2.0298904E-1,-1.5593317E0,-5.1567797E-3,-9.743767E-1,3.2425374E-2,3.7716967E-1,7.0169544E-1,-4.4251E-1,4.4978893E-1,-3.122729E-2,-6.054162E-3,-2.1629917E-2,7.917224E-3,-2.9981205E-2,2.286853E-3,1.3602618E-2,3.1431713E-3,1.2350467E-2,1.942557E-2,-1.035918E-2,2.0963132E-2,4.4597485E-3,1.9368574E-2],"categories":[],"categories_nodes":[],"categories_segments":[],"categories_sizes":[],"default_left":[0,0,0,0,0,0,0,0,0,0,0,0,0,0,0,0,0,0,0,0,0,0,0,0,0,0,0,0,0],"id":16,"left_children":[1,3,5,7,9,11,13,15,-1,17,19,21,23,25,27,-1,-1,-1,-1,-1,-1,-1,-1,-1,-1,-1,-1,-1,-1],"loss_changes":[6.349874E3,1.3512803E3,6.0388916E2,1.8398438E0,6.1154346E2,2.1225684E2,1.846654E2,1.1435547E0,0E0,1.7544385E2,1.5495888E2,2.3682443E2,1.0341919E2,9.9251495E1,3.498168E1,0E0,0E0,0E0,0E0,0E0,0E0,0E0,0E0,0E0,0E0,0E0,0E0,0E0,0E0],"parents":[2147483647,0,0,1,1,2,2,3,3,4,4,5,5,6,6,7,7,9,9,10,10,11,11,12,12,13,13,14,14],"right_children":[2,4,6,8,10,12,14,16,-1,18,20,22,24,26,28,-1,-1,-1,-1,-1,-1,-1,-1,-1,-1,-1,-1,-1,-1],"split_conditions":[3.8E1,6.6E0,1.6E1,8E0,1E0,6.78E0,7E0,6.84E0,-5.1567797E-3,6.84E0,6.42E0,5E0,7.4E0,2E0,7.4666667E0,-3.122729E-2,-6.054162E-3,-2.1629917E-2,7.917224E-3,-2.9981205E-2,2.286853E-3,1.3602618E-2,3.1431713E-3,1.2350467E-2,1.942557E-2,-1.035918E-2,2.0963132E-2,4.4597485E-3,1.9368574E-2],"split_indices":[28,55,12,30,0,56,55,56,0,56,56,12,55,26,55,0,0,0,0,0,0,0,0,0,0,0,0,0,0],"split_type":[0,0,0,0,0,0,0,0,0,0,0,0,0,0,0,0,0,0,0,0,0,0,0,0,0,0,0,0,0],"sum_hessian":[1.4001082E4,4.5079355E3,9.493146E3,2.1025176E3,2.405418E3,8.323393E3,1.1697542E3,2.0974075E3,5.1100497E0,1.1710382E3,1.2343796E3,3.568576E3,4.754817E3,8.5805444E2,3.1169968E2,2.092015E3,5.3926535E0,1.0877834E3,8.325477E1,5.7661545E1,1.1767181E3,1.4949656E3,2.07361E3,3.638827E3,1.11599E3,8.204609E2,3.759354E1,2.2318054E2,8.851913E1],"tree_param":{"num_deleted":"0","num_feature":"105","num_nodes":"29","size_leaf_vector":"1"}},{"base_weights":[5.7489413E-4,-9.45891E-1,4.585694E-1,-1.5327146E0,-4.4630313E-1,5.4414487E-1,-2.6237294E-1,-1.5391201E0,-6.44216E-1,-9.7150415E-1,3.672126E-2,3.857674E-1,7.240324E-1,-4.770804E-1,4.38919E-1,-3.0823555E-2,-5.232445E-3,-2.2521997E-2,7.004772E-3,-2.2063414E-2,4.609331E-3,-2.9484063E-2,2.2448248E-3,1.4984668E-2,2.9446792E-3,2.0877482E-2,1.1511864E-2,-2.5864724E-2,-6.697132E-3,-1.5726319E-2,1.0190342E-2],"categories":[],"categories_nodes":[],"categories_segments":[],"categories_sizes":[],"default_left":[0,0,0,0,0,0,0,0,0,0,0,0,0,0,0,0,0,0,0,0,0,0,0,0,0,0,0,0,0,0,0],"id":17,"left_children":[1,3,5,7,9,11,13,15,17,19,21,23,25,27,29,-1,-1,-1,-1,-1,-1,-1,-1,-1,-1,-1,-1,-1,-1,-1,-1],"loss_changes":[6.0262056E3,1.323573E3,5.790808E2,4.7055664E0,6.242973E2,2.362041E2,1.5110696E2,1.6015625E0,1.4544187E1,1.885824E2,1.459159E2,3.8604474E2,1.8121558E2,8.515517E1,2.2058228E1,0E0,0E0,0E0,0E0,0E0,0E0,0E0,0E0,0E0,0E0,0E0,0E0,0E0,0E0,0E0,0E0],"parents":[2147483647,0,0,1,1,2,2,3,3,4,4,5,5,6,6,7,7,8,8,9,9,10,10,11,11,12,12,13,13,14,14],"right_children":[2,4,6,8,10,12,14,16,18,20,22,24,26,28,30,-1,-1,-1,-1,-1,-1,-1,-1,-1,-1,-1,-1,-1,-1,-1,-1],"split_conditions":[4.35E1,6.6E0,1.9E1,3.65E1,1E0,2E0,7.0333333E0,3.194706E0,6.3E0,6.74E0,6.04E0,5E0,7E1,6.5E0,6.36E0,-3.0823555E-2,-5.232445E-3,-2.2521997E-2,7.004772E-3,-2.2063414E-2,4.609331E-3,-2.9484063E-2,2.2448248E-3,1.4984668E-2,2.9446792E-3,2.0877482E-2,1.1511864E-2,-2.5864724E-2,-6.697132E-3,-1.5726319E-2,1.0190342E-2],"split_indices":[28,55,12,28,0,26,55,74,55,56,56,12,52,55,56,0,0,0,0,0,0,0,0,0,0,0,0,0,0,0,0],"split_type":[0,0,0,0,0,0,0,0,0,0,0,0,0,0,0,0,0,0,0,0,0,0,0,0,0,0,0,0,0,0,0],"sum_hessian":[1.3893165E4,4.528112E3,9.365053E3,2.0765835E3,2.451528E3,8.373711E3,9.9134216E2,2.0569675E3,1.961607E1,1.1730566E3,1.2784716E3,4.464412E3,3.909299E3,7.6129016E2,2.3005199E2,2.0518477E3,5.1198087E0,1.3444792E1,6.171277E0,1.058364E3,1.1469265E2,5.582089E1,1.2226506E3,1.7630548E3,2.7013572E3,1.2275027E3,2.6817964E3,1.0592723E2,6.553629E2,9.000112E0,2.2105188E2],"tree_param":{"num_deleted":"0","num_feature":"105","num_nodes":"31","size_leaf_vector":"1"}},{"base_weights":[3.1637312E-3,-9.3474776E-1,4.5701507E-1,-1.5188223E0,-4.3421316E-1,-2.0754865E-1,5.538299E-1,-1.5208052E0,-5.77165E-3,-9.820575E-1,6.2656485E-2,-3.4907255E-1,5.526883E-1,4.677702E-1,8.8712215E-1,-3.0455574E-2,-5.7849158E-3,-2.1978647E-2,1.0668507E-3,-2.9206421E-2,2.7839334E-3,-7.947198E-3,1.581828E-2,1.2033285E-2,-6.7545185E-3,1.528852E-2,7.0644254E-3,-4.965904E-5,1.8609285E-2],"categories":[],"categories_nodes":[],"categories_segments":[],"categories_sizes":[],"default_left":[0,0,0,0,0,0,0,0,0,0,0,0,0,0,0,0,0,0,0,0,0,0,0,0,0,0,0,0,0],"id":18,"left_children":[1,3,5,7,9,11,13,15,-1,17,19,21,23,25,27,-1,-1,-1,-1,-1,-1,-1,-1,-1,-1,-1,-1,-1,-1],"loss_changes":[5.956601E3,1.3287034E3,6.0774854E2,1.1259766E0,6.722407E2,1.3004579E2,2.3277515E2,1.0834961E0,0E0,1.4336597E2,1.5081808E2,5.7172287E1,9.539944E0,2.2038257E2,6.579419E1,0E0,0E0,0E0,0E0,0E0,0E0,0E0,0E0,0E0,0E0,0E0,0E0,0E0,0E0],"parents":[2147483647,0,0,1,1,2,2,3,3,4,4,5,5,6,6,7,7,9,9,10,10,11,11,12,12,13,13,14,14],"right_children":[2,4,6,8,10,12,14,16,-1,18,20,22,24,26,28,-1,-1,-1,-1,-1,-1,-1,-1,-1,-1,-1,-1,-1,-1],"split_conditions":[4.5E1,6.6E0,6.5E1,6.84E0,1E0,7E0,7.3E0,8E0,-5.77165E-3,6.72E0,6.04E0,2E0,2.1334403E0,7.6666665E-1,6.46E0,-3.0455574E-2,-5.7849158E-3,-2.1978647E-2,1.0668507E-3,-2.9206421E-2,2.7839334E-3,-7.947198E-3,1.581828E-2,1.2033285E-2,-6.7545185E-3,1.528852E-2,7.0644254E-3,-4.965904E-5,1.8609285E-2],"split_indices":[28,55,17,56,0,56,55,30,0,56,56,26,78,51,56,0,0,0,0,0,0,0,0,0,0,0,0,0,0],"split_type":[0,0,0,0,0,0,0,0,0,0,0,0,0,0,0,0,0,0,0,0,0,0,0,0,0,0,0,0,0],"sum_hessian":[1.3984498E4,4.5578735E3,9.426625E3,2.0977898E3,2.4600835E3,1.1966239E3,8.230001E3,2.0924233E3,5.366371E0,1.1686594E3,1.2914241E3,1.01221234E3,1.8441148E2,6.5529697E3,1.6770312E3,2.0870845E3,5.3388295E0,1.0507148E3,1.179446E2,5.6846474E1,1.2345776E3,9.750459E2,3.7166477E1,1.7739845E2,7.0130334E0,1.8151208E3,4.737849E3,7.705732E1,1.5999739E3],"tree_param":{"num_deleted":"0","num_feature":"105","num_nodes":"29","size_leaf_vector":"1"}},{"base_weights":[1.334961E-4,-9.166775E-1,4.4144118E-1,-1.5038643E0,-4.1764206E-1,5.2741987E-1,-1.8604657E-1,-1.5059077E0,-4.8246686E-3,-9.044096E-1,2.9003074E-2,3.7463337E-1,6.998798E-1,-4.329203E-1,4.8513693E-1,-3.0158412E-2,-6.193343E-3,-2.0807473E-2,3.262914E-3,-2.8745672E-2,2.0125718E-3,1.456801E-2,2.7246836E-3,2.0151012E-2,1.1128724E-2,-2.5107574E-2,-5.446285E-3,5.267111E-3,1.9433182E-2],"categories":[],"categories_nodes":[],"categories_segments":[],"categories_sizes":[],"default_left":[0,0,0,0,0,0,0,0,0,0,0,0,0,0,0,0,0,0,0,0,0,0,0,0,0,0,0,0,0],"id":19,"left_children":[1,3,5,7,9,11,13,15,-1,17,19,21,23,25,27,-1,-1,-1,-1,-1,-1,-1,-1,-1,-1,-1,-1,-1,-1],"loss_changes":[5.6003726E3,1.3128093E3,5.0503418E2,1.7592773E0,5.3128735E2,2.1426367E2,1.8799124E2,8.046875E-1,0E0,1.7130835E2,1.3336732E2,3.6749567E2,1.6570349E2,1.0623854E2,3.0367233E1,0E0,0E0,0E0,0E0,0E0,0E0,0E0,0E0,0E0,0E0,0E0,0E0,0E0,0E0],"parents":[2147483647,0,0,1,1,2,2,3,3,4,4,5,5,6,6,7,7,9,9,10,10,11,11,12,12,13,13,14,14],"right_children":[2,4,6,8,10,12,14,16,-1,18,20,22,24,26,28,-1,-1,-1,-1,-1,-1,-1,-1,-1,-1,-1,-1,-1,-1],"split_conditions":[4.35E1,6.6E0,1.6E1,3.194706E0,1E0,2E0,7E0,6.82E0,-4.8246686E-3,6.72E0,6.04E0,5E0,1E0,6.5E0,7.4666667E0,-3.0158412E-2,-6.193343E-3,-2.0807473E-2,3.262914E-3,-2.8745672E-2,2.0125718E-3,1.456801E-2,2.7246836E-3,2.0151012E-2,1.1128724E-2,-2.5107574E-2,-5.446285E-3,5.267111E-3,1.9433182E-2],"split_indices":[28,55,12,74,0,26,55,56,0,56,56,12,103,55,55,0,0,0,0,0,0,0,0,0,0,0,0,0,0],"split_type":[0,0,0,0,0,0,0,0,0,0,0,0,0,0,0,0,0,0,0,0,0,0,0,0,0,0,0,0,0],"sum_hessian":[1.3833071E4,4.492438E3,9.340634E3,2.058383E3,2.434055E3,8.217112E3,1.1235217E3,2.053305E3,5.0781584E0,1.1633333E3,1.2707217E3,4.3685596E3,3.8485522E3,8.237836E2,2.9973807E2,2.0477203E3,5.584588E0,1.0328529E3,1.3048033E2,5.4091385E1,1.2166304E3,1.7529047E3,2.615655E3,1.2119541E3,2.6365981E3,1.2799852E2,6.9578516E2,2.125905E2,8.714757E1],"tree_param":{"num_deleted":"0","num_feature":"105","num_nodes":"29","size_leaf_vector":"1"}},{"base_weights":[-1.5833707E-3,-9.2629844E-1,4.3204483E-1,-1.4899676E0,-4.4362643E-1,-2.6320127E-1,5.1642245E-1,-1.4922498E0,-5.1781624E-3,-9.3468857E-1,1.2910707E-2,9.7370887E-1,-4.0084144E-1,3.41783E-1,6.796477E-1,-2.9884672E-2,-6.829698E-3,-2.123558E-2,2.8814797E-3,-2.84994E-2,1.7409549E-3,2.0673994E-2,-0E0,-2.7585069E-2,-3.6886919E-3,4.323344E-3,1.5424211E-2,1.2395797E-2,2.1476774E-2],"categories":[],"categories_nodes":[],"categories_segments":[],"categories_sizes":[],"default_left":[0,0,0,0,0,0,0,0,0,0,0,0,0,0,0,0,0,0,0,0,0,0,0,0,0,0,0,0,0],"id":20,"left_children":[1,3,5,7,9,11,13,15,-1,17,19,21,23,25,27,-1,-1,-1,-1,-1,-1,-1,-1,-1,-1,-1,-1,-1,-1],"loss_changes":[5.5307974E3,1.1928257E3,5.516825E2,2.0161133E0,5.346158E2,1.7471136E2,2.3655737E2,2.2998047E-1,0E0,1.5906134E2,1.311879E2,5.4066544E0,1.9205312E2,2.1714148E2,9.693591E1,0E0,0E0,0E0,0E0,0E0,0E0,0E0,0E0,0E0,0E0,0E0,0E0,0E0,0E0],"parents":[2147483647,0,0,1,1,2,2,3,3,4,4,5,5,6,6,7,7,9,9,10,10,11,11,12,12,13,13,14,14],"right_children":[2,4,6,8,10,12,14,16,-1,18,20,22,24,26,28,-1,-1,-1,-1,-1,-1,-1,-1,-1,-1,-1,-1,-1,-1],"split_conditions":[3.8E1,6.6E0,6.1E1,3.65E1,1E0,5E0,6.84E0,6.84E0,-5.1781624E-3,6.72E0,6.04E0,6E0,6.6E0,2.3E1,7.633333E0,-2.9884672E-2,-6.829698E-3,-2.123558E-2,2.8814797E-3,-2.84994E-2,1.7409549E-3,2.0673994E-2,-0E0,-2.7585069E-2,-3.6886919E-3,4.323344E-3,1.5424211E-2,1.2395797E-2,2.1476774E-2],"split_indices":[28,55,18,28,0,12,56,56,0,56,56,63,55,42,55,0,0,0,0,0,0,0,0,0,0,0,0,0,0],"split_type":[0,0,0,0,0,0,0,0,0,0,0,0,0,0,0,0,0,0,0,0,0,0,0,0,0,0,0,0,0],"sum_hessian":[1.378189E4,4.3985586E3,9.383331E3,2.0232643E3,2.3752944E3,1.0131158E3,8.370215E3,2.0176505E3,5.6137466E0,1.1429087E3,1.2323859E3,9.767928E1,9.154365E2,4.0541526E3,4.3160625E3,2.0118212E3,5.8293934E0,1.02335187E3,1.19556755E2,5.5297813E1,1.177088E3,9.1166985E1,6.5122995E0,1.6010167E2,7.5533484E2,3.144246E3,9.099065E2,3.7604392E3,5.556231E2],"tree_param":{"num_deleted":"0","num_feature":"105","num_nodes":"29","size_leaf_vector":"1"}},{"base_weights":[-4.46269E-3,-9.03936E-1,4.184907E-1,-1.4722435E0,-4.225551E-1,-1.940929E-1,5.217052E-1,-1.4742514E0,-4.889915E-3,-9.290356E-1,3.321681E-2,-4.294872E-1,4.6458286E-1,4.333673E-1,8.280712E-1,-2.9525856E-2,-5.248918E-3,-2.1161381E-2,3.35383E-3,-2.8300704E-2,2.1801793E-3,-1.0974047E-2,6.670802E-3,-1.4021186E-2,1.057917E-2,1.2721089E-2,6.001714E-3,1.4421366E-3,1.7333044E-2],"categories":[],"categories_nodes":[],"categories_segments":[],"categories_sizes":[],"default_left":[0,0,0,0,0,0,0,0,0,0,0,0,0,0,0,0,0,0,0,0,0,0,0,0,0,0,0,0,0],"id":21,"left_children":[1,3,5,7,9,11,13,15,-1,17,19,21,23,25,27,-1,-1,-1,-1,-1,-1,-1,-1,-1,-1,-1,-1,-1,-1],"loss_changes":[5.245546E3,1.2015203E3,5.9370325E2,1.4575195E0,5.540741E2,2.1094936E2,2.1419653E2,1.3071289E0,0E0,1.6252972E2,1.3829372E2,9.222862E1,2.8535255E1,1.6678369E2,5.0914307E1,0E0,0E0,0E0,0E0,0E0,0E0,0E0,0E0,0E0,0E0,0E0,0E0,0E0,0E0],"parents":[2147483647,0,0,1,1,2,2,3,3,4,4,5,5,6,6,7,7,9,9,10,10,11,11,12,12,13,13,14,14],"right_children":[2,4,6,8,10,12,14,16,-1,18,20,22,24,26,28,-1,-1,-1,-1,-1,-1,-1,-1,-1,-1,-1,-1,-1,-1],"split_conditions":[3.8E1,6.6E0,1E0,6.84E0,1E0,7E0,7.266667E0,3.194706E0,-4.889915E-3,6.72E0,6.04E0,2E0,2.26E2,1E0,6.46E0,-2.9525856E-2,-5.248918E-3,-2.1161381E-2,3.35383E-3,-2.8300704E-2,2.1801793E-3,-1.0974047E-2,6.670802E-3,-1.4021186E-2,1.057917E-2,1.2721089E-2,6.001714E-3,1.4421366E-3,1.7333044E-2],"split_indices":[28,55,16,56,0,55,55,74,0,56,56,27,48,103,56,0,0,0,0,0,0,0,0,0,0,0,0,0,0],"split_type":[0,0,0,0,0,0,0,0,0,0,0,0,0,0,0,0,0,0,0,0,0,0,0,0,0,0,0,0,0],"sum_hessian":[1.3777024E4,4.4052607E3,9.371764E3,2.0145541E3,2.3907068E3,1.3493295E3,8.0224346E3,2.0094495E3,5.1046653E0,1.1309409E3,1.2597657E3,9.964729E2,3.5285663E2,6.2388535E3,1.783581E3,2.0041567E3,5.292745E0,1.0128624E3,1.1807852E2,5.7599483E1,1.2021663E3,8.641702E2,1.3230267E2,1.5066417E1,3.377902E2,2.4645464E3,3.7743071E3,8.856115E1,1.6950199E3],"tree_param":{"num_deleted":"0","num_feature":"105","num_nodes":"29","size_leaf_vector":"1"}},{"base_weights":[6.805592E-3,-6.705597E-1,4.1520292E-1,-1.379632E0,-2.534798E-1,1.4193624E-1,5.9545434E-1,-1.4183322E0,-6.9215053E-1,-8.337699E-1,1.5342428E-1,-1.4566374E-1,4.6573192E-1,5.031262E-1,8.94588E-1,-2.895897E-2,-1.6750889E-2,-2.1150382E-4,-2.1425825E-2,-2.007254E-2,-4.9896836E-3,4.5595327E-3,-1.7177854E-2,-9.628675E-3,5.4196515E-3,1.1758748E-2,-1.5990318E-4,1.4477534E-3,1.1208582E-2,1.5371594E-2,2.0801632E-2],"categories":[],"categories_nodes":[],"categories_segments":[],"categories_sizes":[],"default_left":[0,0,0,0,0,0,0,0,0,0,0,0,0,0,0,0,0,0,0,0,0,0,0,0,0,0,0,0,0,0,0],"id":22,"left_children":[1,3,5,7,9,11,13,15,17,19,21,23,25,27,29,-1,-1,-1,-1,-1,-1,-1,-1,-1,-1,-1,-1,-1,-1,-1,-1],"loss_changes":[3.8158105E3,1.5308552E3,4.2278296E2,4.40459E1,7.7425806E2,3.2003204E2,1.3947742E2,2.2799805E1,2.8173012E1,1.315805E2,1.4581088E2,2.552618E2,9.416205E1,9.725214E1,1.6437866E1,0E0,0E0,0E0,0E0,0E0,0E0,0E0,0E0,0E0,0E0,0E0,0E0,0E0,0E0,0E0,0E0],"parents":[2147483647,0,0,1,1,2,2,3,3,4,4,5,5,6,6,7,7,8,8,9,9,10,10,11,11,12,12,13,13,14,14],"right_children":[2,4,6,8,10,12,14,16,18,20,22,24,26,28,30,-1,-1,-1,-1,-1,-1,-1,-1,-1,-1,-1,-1,-1,-1,-1,-1],"split_conditions":[-5.1845554E-2,6.5E0,6.8333335E0,-1.763666E-1,1E0,2E0,7.4333334E0,-6.240681E-2,1E0,1.7E1,5E0,9.1E1,8.61E1,5E0,1.5615788E0,-2.895897E-2,-1.6750889E-2,-2.1150382E-4,-2.1425825E-2,-2.007254E-2,-4.9896836E-3,4.5595327E-3,-1.7177854E-2,-9.628675E-3,5.4196515E-3,1.1758748E-2,-1.5990318E-4,1.4477534E-3,1.1208582E-2,1.5371594E-2,2.0801632E-2],"split_indices":[67,55,55,67,97,26,55,68,54,16,31,16,32,50,73,0,0,0,0,0,0,0,0,0,0,0,0,0,0,0,0],"split_type":[0,0,0,0,0,0,0,0,0,0,0,0,0,0,0,0,0,0,0,0,0,0,0,0,0,0,0,0,0,0,0],"sum_hessian":[1.3784598E4,5.182792E3,8.601806E3,1.9143287E3,3.2684634E3,3.424557E3,5.1772485E3,1.8058998E3,1.0842903E2,1.3460541E3,1.9224093E3,1.8134695E3,1.6110874E3,3.9689717E3,1.208277E3,1.7095376E3,9.636216E1,4.15365E1,6.689253E1,1.0387732E3,3.0728085E2,1.7950725E3,1.2733679E2,1.00509705E3,8.0837244E2,1.281428E3,3.2965942E2,4.693902E2,3.4995815E3,6.680136E2,5.4026337E2],"tree_param":{"num_deleted":"0","num_feature":"105","num_nodes":"31","size_leaf_vector":"1"}},{"base_weights":[9.8091755E-3,-7.995826E-1,3.4684995E-1,-1.3539917E0,-3.8511994E-1,-9.681986E-2,5.0499487E-1,-1.4181508E0,-9.225052E-2,-8.898047E-1,7.191405E-2,-2.3285241E-1,7.597798E-1,2.9514194E-1,6.3100064E-1,-2.8509332E-2,7.0461472E-3,3.5738784E-3,-2.9528381E-2,-1.9565966E-2,8.784121E-3,2.204711E-3,-3.425705E-2,-1.5388261E-2,-5.8085175E-4,-7.869645E-3,1.7462244E-2,1.1894539E-2,3.500452E-3,2.7138644E-3,1.3638246E-2],"categories":[],"categories_nodes":[],"categories_segments":[],"categories_sizes":[],"default_left":[0,0,0,0,0,0,0,0,0,0,0,0,0,0,0,0,0,0,0,0,0,0,0,0,0,0,0,0,0,0,0],"id":23,"left_children":[1,3,5,7,9,11,13,15,17,19,21,23,25,27,29,-1,-1,-1,-1,-1,-1,-1,-1,-1,-1,-1,-1,-1,-1,-1,-1],"loss_changes":[3.7626392E3,9.273235E2,6.840343E2,1.3799927E2,5.381417E2,2.988899E2,1.8807544E2,2.4910889E1,3.632666E1,1.3297546E2,8.3148E1,2.4138936E2,4.810785E1,9.6130325E1,1.1170752E2,0E0,0E0,0E0,0E0,0E0,0E0,0E0,0E0,0E0,0E0,0E0,0E0,0E0,0E0,0E0,0E0],"parents":[2147483647,0,0,1,1,2,2,3,3,4,4,5,5,6,6,7,7,8,8,9,9,10,10,11,11,12,12,13,13,14,14],"right_children":[2,4,6,8,10,12,14,16,18,20,22,24,26,28,30,-1,-1,-1,-1,-1,-1,-1,-1,-1,-1,-1,-1,-1,-1,-1,-1],"split_conditions":[2.8E1,6.4666667E0,1.45E2,1.92E2,1E0,6.1E1,6.8333335E0,6.9E1,1E0,1.92E2,7.777778E-1,6.6E0,6.111111E-1,1E0,5E0,-2.8509332E-2,7.0461472E-3,3.5738784E-3,-2.9528381E-2,-1.9565966E-2,8.784121E-3,2.204711E-3,-3.425705E-2,-1.5388261E-2,-5.8085175E-4,-7.869645E-3,1.7462244E-2,1.1894539E-2,3.500452E-3,2.7138644E-3,1.3638246E-2],"split_indices":[29,55,18,18,97,42,55,64,103,18,51,55,51,97,50,0,0,0,0,0,0,0,0,0,0,0,0,0,0,0,0],"split_type":[0,0,0,0,0,0,0,0,0,0,0,0,0,0,0,0,0,0,0,0,0,0,0,0,0,0,0,0,0,0,0],"sum_hessian":[1.3784342E4,4.049582E3,9.73476E3,1.7264438E3,2.3231382E3,2.5569487E3,7.177811E3,1.641559E3,8.488494E1,1.102806E3,1.2203322E3,2.2106882E3,3.4626068E2,2.7021814E3,4.4756294E3,1.6363364E3,5.2225547E0,7.402663E1,1.085831E1,1.0359012E3,6.690472E1,1.1998218E3,2.051043E1,6.033897E2,1.6072983E3,2.908729E1,3.171734E2,7.6532733E2,1.9368541E3,4.2070084E2,4.0549287E3],"tree_param":{"num_deleted":"0","num_feature":"105","num_nodes":"31","size_leaf_vector":"1"}},{"base_weights":[-7.741044E-4,-8.866804E-1,4.0373346E-1,-2.8675953E-2,-4.2649513E-1,-8.7028E-4,5.2497333E-1,-8.536669E-1,-2.4994E-2,8.8366646E-1,-1.640707E-1,4.2354748E-1,7.8495145E-1,-2.0499365E-2,-5.554219E-3,1.8501993E-3,-1.2124918E-2,1.9459037E-2,5.898383E-3,-2.2517035E-2,4.713276E-4,-2.4733417E-2,9.580029E-3,1.1081509E-2,1.8750047E-2],"categories":[],"categories_nodes":[],"categories_segments":[],"categories_sizes":[],"default_left":[0,0,0,0,0,0,0,0,0,0,0,0,0,0,0,0,0,0,0,0,0,0,0,0,0],"id":24,"left_children":[1,3,5,-1,7,9,11,13,15,17,19,21,23,-1,-1,-1,-1,-1,-1,-1,-1,-1,-1,-1,-1],"loss_changes":[4.919186E3,1.0785725E3,4.6273145E2,0E0,4.012923E2,3.1405817E2,1.88349E2,1.09262024E2,8.380801E1,1.5101654E1,3.3362277E2,4.8373285E2,6.728699E1,0E0,0E0,0E0,0E0,0E0,0E0,0E0,0E0,0E0,0E0,0E0,0E0],"parents":[2147483647,0,0,1,1,2,2,4,4,5,5,6,6,7,7,8,8,9,9,10,10,11,11,12,12],"right_children":[2,4,6,-1,8,10,12,14,16,18,20,22,24,-1,-1,-1,-1,-1,-1,-1,-1,-1,-1,-1,-1],"split_conditions":[3.95E1,6.6E0,1.45E2,-2.8675953E-2,1E0,5E0,1E0,1.55E1,5E1,9.8E1,6.6E0,6.45E1,2E0,-2.0499365E-2,-5.554219E-3,1.8501993E-3,-1.2124918E-2,1.9459037E-2,5.898383E-3,-2.2517035E-2,4.713276E-4,-2.4733417E-2,9.580029E-3,1.1081509E-2,1.8750047E-2],"split_indices":[28,55,18,0,97,12,104,29,18,16,55,29,26,0,0,0,0,0,0,0,0,0,0,0,0],"split_type":[0,0,0,0,0,0,0,0,0,0,0,0,0,0,0,0,0,0,0,0,0,0,0,0,0],"sum_hessian":[1.3715757E4,4.2984014E3,9.417355E3,1.9578954E3,2.340506E3,2.1705325E3,7.246823E3,1.1300659E3,1.2104402E3,3.3369962E2,1.836833E3,5.225269E3,2.021554E3,8.666668E2,2.6339908E2,1.0089566E3,2.0148354E2,2.8544894E2,4.825066E1,2.9664304E2,1.54019E3,1.6486603E2,5.0604033E3,8.1612195E2,1.205432E3],"tree_param":{"num_deleted":"0","num_feature":"105","num_nodes":"25","size_leaf_vector":"1"}},{"base_weights":[1.4047432E-3,-8.5995406E-1,3.9675245E-1,-1.4202843E0,-3.988855E-1,-2.4980909E-1,4.7374338E-1,-1.4222902E0,-5.6415712E-3,-8.488825E-1,8.763306E-3,-4.0612406E-1,4.7562158E-1,3.8629276E-1,7.767072E-1,-2.848696E-2,-6.735791E-3,-1.9679854E-2,5.5975276E-3,-2.7815174E-2,1.662602E-3,-1.569183E-2,-3.144489E-3,1.302626E-2,-2.6392564E-4,1.323666E-2,5.4123867E-3,-1.6557405E-3,1.6428482E-2],"categories":[],"categories_nodes":[],"categories_segments":[],"categories_sizes":[],"default_left":[0,0,0,0,0,0,0,0,0,0,0,0,0,0,0,0,0,0,0,0,0,0,0,0,0,0,0,0,0],"id":25,"left_children":[1,3,5,7,9,11,13,15,-1,17,19,21,23,25,27,-1,-1,-1,-1,-1,-1,-1,-1,-1,-1,-1,-1,-1,-1],"loss_changes":[4.654807E3,1.1062007E3,4.6727905E2,7.1435547E-1,4.3503665E2,1.14177345E2,2.1927026E2,1.5722656E-1,0E0,1.7382861E2,1.289092E2,7.622461E1,1.59909935E1,2.0575299E2,7.29043E1,0E0,0E0,0E0,0E0,0E0,0E0,0E0,0E0,0E0,0E0,0E0,0E0,0E0,0E0],"parents":[2147483647,0,0,1,1,2,2,3,3,4,4,5,5,6,6,7,7,9,9,10,10,11,11,12,12,13,13,14,14],"right_children":[2,4,6,8,10,12,14,16,-1,18,20,22,24,26,28,-1,-1,-1,-1,-1,-1,-1,-1,-1,-1,-1,-1,-1,-1],"split_conditions":[3.65E1,6.6E0,6.1E1,6.84E0,1E0,6.94E0,7.266667E0,2.6197546E0,-5.6415712E-3,6.74E0,6.04E0,1E0,5E0,7.6666665E-1,6.46E0,-2.848696E-2,-6.735791E-3,-1.9679854E-2,5.5975276E-3,-2.7815174E-2,1.662602E-3,-1.569183E-2,-3.144489E-3,1.302626E-2,-2.6392564E-4,1.323666E-2,5.4123867E-3,-1.6557405E-3,1.6428482E-2],"split_indices":[28,55,18,56,0,56,55,74,0,56,56,0,63,51,56,0,0,0,0,0,0,0,0,0,0,0,0,0,0],"split_type":[0,0,0,0,0,0,0,0,0,0,0,0,0,0,0,0,0,0,0,0,0,0,0,0,0,0,0,0,0],"sum_hessian":[1.3660401E4,4.2947856E3,9.365615E3,1.93303E3,2.3617556E3,9.939892E2,8.371626E3,1.9275066E3,5.5235386E0,1.121163E3,1.2405927E3,8.207206E2,1.7326862E2,6.507818E3,1.8638081E3,1.9213822E3,6.124311E0,1.00267224E3,1.1849071E2,5.7451374E1,1.1831414E3,3.1974673E2,5.0097385E2,1.27739845E2,4.552877E1,1.9146848E3,4.5931333E3,9.08564E1,1.7729518E3],"tree_param":{"num_deleted":"0","num_feature":"105","num_nodes":"29","size_leaf_vector":"1"}},{"base_weights":[-6.0521807E-3,-8.3862036E-1,3.836019E-1,-1.4060607E0,-3.7869433E-1,4.6001697E-1,-2.3136453E-1,-2.816198E-2,-6.1475816E-3,-8.514359E-1,4.3115478E-2,3.8374296E-1,7.7284414E-1,-3.7513608E-1,7.078168E-1,-2.0215731E-2,-6.7704795E-3,3.117861E-3,-1.0844846E-2,1.1865878E-2,4.646513E-3,4.7508217E-3,1.6322613E-2,-2.362368E-2,-4.644876E-3,5.2978946E-3,1.9994337E-2],"categories":[],"categories_nodes":[],"categories_segments":[],"categories_sizes":[],"default_left":[0,0,0,0,0,0,0,0,0,0,0,0,0,0,0,0,0,0,0,0,0,0,0,0,0,0,0],"id":26,"left_children":[1,3,5,7,9,11,13,-1,-1,15,17,19,21,23,25,-1,-1,-1,-1,-1,-1,-1,-1,-1,-1,-1,-1],"loss_changes":[4.3994185E3,1.1239697E3,4.3478638E2,4.4873047E-1,4.787585E2,1.9345496E2,1.3908676E2,0E0,0E0,8.9389465E1,8.386355E1,2.0852972E2,3.5132446E1,9.985162E1,1.5069611E1,0E0,0E0,0E0,0E0,0E0,0E0,0E0,0E0,0E0,0E0,0E0,0E0],"parents":[2147483647,0,0,1,1,2,2,3,3,4,4,5,5,6,6,9,9,10,10,11,11,12,12,13,13,14,14],"right_children":[2,4,6,8,10,12,14,-1,-1,16,18,20,22,24,26,-1,-1,-1,-1,-1,-1,-1,-1,-1,-1,-1,-1],"split_conditions":[4.35E1,6.6E0,1.8E1,3.194706E0,1E0,7.3E0,7.266667E0,-2.816198E-2,-6.1475816E-3,1.6E1,4.4E1,5E0,5E0,6.6E0,7.4666667E0,-2.0215731E-2,-6.7704795E-3,3.117861E-3,-1.0844846E-2,1.1865878E-2,4.646513E-3,4.7508217E-3,1.6322613E-2,-2.362368E-2,-4.644876E-3,5.2978946E-3,1.9994337E-2],"split_indices":[28,55,12,74,0,55,55,0,0,28,17,12,50,55,55,0,0,0,0,0,0,0,0,0,0,0,0],"split_type":[0,0,0,0,0,0,0,0,0,0,0,0,0,0,0,0,0,0,0,0,0,0,0,0,0,0,0],"sum_hessian":[1.354978E4,4.3187583E3,9.231022E3,1.9278213E3,2.3909368E3,8.213329E3,1.01769354E3,1.9219374E3,5.8839784E0,1.1261202E3,1.2648165E3,6.6148223E3,1.5985063E3,8.8611334E2,1.3158018E2,8.5399835E2,2.7212195E2,1.0650049E3,1.9981169E2,2.7658643E3,3.8489583E3,1.23745544E2,1.4747609E3,1.26907135E2,7.5920624E2,5.74183E1,7.416188E1],"tree_param":{"num_deleted":"0","num_feature":"105","num_nodes":"27","size_leaf_vector":"1"}},{"base_weights":[-7.8711426E-4,-8.3596003E-1,3.8231188E-1,-1.4194927E0,-4.235437E-1,-1.945389E-1,4.6823692E-1,-2.8436562E-2,-4.8249546E-3,-9.135093E-1,3.0672465E-2,1.0572912E0,-3.655539E-1,3.8553616E-1,7.2632927E-1,-2.07346E-2,3.804487E-3,1.8572101E-3,-9.827358E-3,2.230335E-2,4.122093E-3,-1.0357456E-2,1.0196951E-2,1.2366707E-2,4.743445E-3,1.3118345E-2,1.8816467E-2],"categories":[],"categories_nodes":[],"categories_segments":[],"categories_sizes":[],"default_left":[0,0,0,0,0,0,0,0,0,0,0,0,0,0,0,0,0,0,0,0,0,0,0,0,0,0,0],"id":27,"left_children":[1,3,5,7,9,11,13,-1,-1,15,17,19,21,23,25,-1,-1,-1,-1,-1,-1,-1,-1,-1,-1,-1,-1],"loss_changes":[4.351564E3,1.0245027E3,4.6278015E2,1.4865723E0,5.605559E2,2.6039963E2,1.707279E2,0E0,0E0,1.6649365E2,4.230864E1,4.726013E0,1.4393268E2,2.111842E2,2.4934937E1,0E0,0E0,0E0,0E0,0E0,0E0,0E0,0E0,0E0,0E0,0E0,0E0],"parents":[2147483647,0,0,1,1,2,2,3,3,4,4,5,5,6,6,9,9,10,10,11,11,12,12,13,13,14,14],"right_children":[2,4,6,8,10,12,14,-1,-1,16,18,20,22,24,26,-1,-1,-1,-1,-1,-1,-1,-1,-1,-1,-1,-1],"split_conditions":[4.5E1,6.46E0,6.5E1,8E0,1E0,5E0,7.16E0,-2.8436562E-2,-4.8249546E-3,6.74E0,4.411111E1,6E0,7.04E0,1E0,7.56E0,-2.07346E-2,3.804487E-3,1.8572101E-3,-9.827358E-3,2.230335E-2,4.122093E-3,-1.0357456E-2,1.0196951E-2,1.2366707E-2,4.743445E-3,1.3118345E-2,1.8816467E-2],"split_indices":[28,56,17,30,97,12,56,0,0,56,32,63,56,103,56,0,0,0,0,0,0,0,0,0,0,0,0],"split_type":[0,0,0,0,0,0,0,0,0,0,0,0,0,0,0,0,0,0,0,0,0,0,0,0,0,0,0],"sum_hessian":[1.3589184E4,4.2722305E3,9.316953E3,1.7630444E3,2.5091863E3,1.2055604E3,8.111393E3,1.7576781E3,5.3663197E0,1.2057174E3,1.3034688E3,1.4108179E2,1.0644786E3,6.1553677E3,1.9560254E3,1.0857175E3,1.19999855E2,1.1701061E3,1.333627E2,1.2954771E2,1.1534076E1,9.0942426E2,1.5505441E2,2.3871265E3,3.7682412E3,1.4913967E3,4.6462875E2],"tree_param":{"num_deleted":"0","num_feature":"105","num_nodes":"27","size_leaf_vector":"1"}},{"base_weights":[8.664919E-3,-8.1056964E-1,3.8026983E-1,-1.3815502E0,-3.5700804E-1,-2.7402884E-1,4.5722923E-1,-1.3837479E0,-3.8861062E-3,-8.17321E-1,4.779545E-2,9.020708E-1,-4.0764898E-1,2.6314104E-1,5.745732E-1,-2.806544E-2,-2.197552E-2,-1.8654475E-2,8.094164E-3,-2.7187956E-2,2.3516093E-3,1.9358134E-2,-0E0,-2.8106544E-2,-4.4927103E-3,1.3222206E-2,1.2481628E-3,1.697642E-2,9.366347E-3],"categories":[],"categories_nodes":[],"categories_segments":[],"categories_sizes":[],"default_left":[0,0,0,0,0,0,0,0,0,0,0,0,0,0,0,0,0,0,0,0,0,0,0,0,0,0,0,0,0],"id":28,"left_children":[1,3,5,7,9,11,13,15,-1,17,19,21,23,25,27,-1,-1,-1,-1,-1,-1,-1,-1,-1,-1,-1,-1,-1,-1],"loss_changes":[4.1165103E3,1.0884575E3,4.6931348E2,1.9440918E0,4.405475E2,1.5550073E2,1.8808118E2,1.3720703E-1,0E0,1.5828949E2,1.23172165E2,6.1061707E0,1.5839648E2,2.5074109E2,1.4772363E2,0E0,0E0,0E0,0E0,0E0,0E0,0E0,0E0,0E0,0E0,0E0,0E0,0E0,0E0],"parents":[2147483647,0,0,1,1,2,2,3,3,4,4,5,5,6,6,7,7,9,9,10,10,11,11,12,12,13,13,14,14],"right_children":[2,4,6,8,10,12,14,16,-1,18,20,22,24,26,28,-1,-1,-1,-1,-1,-1,-1,-1,-1,-1,-1,-1,-1,-1],"split_conditions":[3.95E1,6.6E0,6.1E1,8E0,1E0,5E0,2E0,6.3333335E0,-3.8861062E-3,6.82E0,6.42E0,6E0,6.5E0,5E0,7.6666665E-1,-2.806544E-2,-2.197552E-2,-1.8654475E-2,8.094164E-3,-2.7187956E-2,2.3516093E-3,1.9358134E-2,-0E0,-2.8106544E-2,-4.4927103E-3,1.3222206E-2,1.2481628E-3,1.697642E-2,9.366347E-3],"split_indices":[28,55,18,30,0,12,27,55,0,56,56,63,55,12,51,0,0,0,0,0,0,0,0,0,0,0,0,0,0],"split_type":[0,0,0,0,0,0,0,0,0,0,0,0,0,0,0,0,0,0,0,0,0,0,0,0,0,0,0,0,0],"sum_hessian":[1.3513307E4,4.2141836E3,9.299123E3,1.8601012E3,2.3540825E3,9.759477E2,8.323176E3,1.8549974E3,5.1036787E0,1.1002892E3,1.2537935E3,9.58709E1,8.800768E2,3.145394E3,5.1777812E3,1.7144086E3,1.4058894E2,1.007178E3,9.311118E1,5.4197094E1,1.1995963E3,8.9133156E1,6.7377467E0,1.3039334E2,7.496834E2,1.0490729E3,2.0963213E3,1.4335122E3,3.744269E3],"tree_param":{"num_deleted":"0","num_feature":"105","num_nodes":"29","size_leaf_vector":"1"}},{"base_weights":[-1.9315444E-3,-7.914568E-1,3.6404318E-1,-2.7976274E-2,-3.7786958E-1,1.1835346E-1,5.592915E-1,-8.3201325E-1,4.5868143E-2,6.717395E-1,-9.9370226E-2,8.142038E-1,4.6636307E-1,-1.8633619E-2,6.4635645E-3,2.527648E-3,-7.5190803E-3,1.5515814E-2,2.7738905E-3,-2.6531186E-2,7.578912E-4,1.4818271E-2,2.0762725E-2,-1.25495475E-2,1.040689E-2],"categories":[],"categories_nodes":[],"categories_segments":[],"categories_sizes":[],"default_left":[0,0,0,0,0,0,0,0,0,0,0,0,0,0,0,0,0,0,0,0,0,0,0,0,0],"id":29,"left_children":[1,3,5,-1,7,9,11,13,15,17,19,21,23,-1,-1,-1,-1,-1,-1,-1,-1,-1,-1,-1,-1],"loss_changes":[3.9139485E3,1.0733601E3,4.4288733E2,0E0,4.9367578E2,4.9562912E2,1.1887463E2,1.4456073E2,4.5093502E1,6.2957764E1,4.9843134E2,1.6809265E1,2.2534314E2,0E0,0E0,0E0,0E0,0E0,0E0,0E0,0E0,0E0,0E0,0E0,0E0],"parents":[2147483647,0,0,1,1,2,2,4,4,5,5,6,6,7,7,8,8,9,9,10,10,11,11,12,12],"right_children":[2,4,6,-1,8,10,12,14,16,18,20,22,24,-1,-1,-1,-1,-1,-1,-1,-1,-1,-1,-1,-1],"split_conditions":[4.5E1,6.46E0,2E0,-2.7976274E-2,1E0,5E0,7.6222223E-1,6.82E0,3.5E1,2.66E2,6.46E0,4.4E1,6.35E1,-1.8633619E-2,6.4635645E-3,2.527648E-3,-7.5190803E-3,1.5515814E-2,2.7738905E-3,-2.6531186E-2,7.578912E-4,1.4818271E-2,2.0762725E-2,-1.25495475E-2,1.040689E-2],"split_indices":[28,56,27,0,0,12,51,56,17,17,56,42,29,0,0,0,0,0,0,0,0,0,0,0,0],"split_type":[0,0,0,0,0,0,0,0,0,0,0,0,0,0,0,0,0,0,0,0,0,0,0,0,0],"sum_hessian":[1.3534127E4,4.285609E3,9.248518E3,1.7303071E3,2.5553018E3,4.1010874E3,5.14743E3,1.2322124E3,1.3230894E3,1.1562996E3,2.944788E3,1.3619346E3,3.7854956E3,1.1360309E3,9.618151E1,1.1159565E3,2.0713281E2,9.639769E2,1.9232263E2,2.92622E2,2.652166E3,1.0456996E3,3.16235E2,1.746604E2,3.6108352E3],"tree_param":{"num_deleted":"0","num_feature":"105","num_nodes":"25","size_leaf_vector":"1"}},{"base_weights":[-1.1723201E-2,-7.779487E-1,2.723501E-1,-1.2956392E0,-3.72948E-1,-1.6735241E-1,4.3216535E-1,-2.7178105E-2,-3.9634746E-1,-8.3106196E-1,4.0641896E-2,-8.7173593E-1,1.2684824E-2,2.1894015E-1,5.6374055E-1,5.530443E-4,-3.3430107E-2,-1.7960768E-2,1.7828068E-2,-1.7563863E-2,1.9727584E-3,1.0338363E-4,-2.7436068E-2,-2.548671E-3,1.4048386E-2,6.967293E-3,4.6089877E-5,9.608549E-3,1.6240722E-2],"categories":[],"categories_nodes":[],"categories_segments":[],"categories_sizes":[],"default_left":[0,0,0,0,0,0,0,0,0,0,0,0,0,0,0,0,0,0,0,0,0,0,0,0,0,0,0,0,0],"id":30,"left_children":[1,3,5,7,9,11,13,-1,15,17,19,21,23,25,27,-1,-1,-1,-1,-1,-1,-1,-1,-1,-1,-1,-1,-1,-1],"loss_changes":[2.899147E3,7.5129224E2,6.832679E2,8.534717E1,3.854914E2,3.2955988E2,1.9857324E2,0E0,6.233949E1,1.1525519E2,5.6683224E1,2.3326407E2,2.0086229E2,7.6218475E1,8.7813965E1,0E0,0E0,0E0,0E0,0E0,0E0,0E0,0E0,0E0,0E0,0E0,0E0,0E0,0E0],"parents":[2147483647,0,0,1,1,2,2,3,3,4,4,5,5,6,6,8,8,9,9,10,10,11,11,12,12,13,13,14,14],"right_children":[2,4,6,8,10,12,14,-1,16,18,20,22,24,26,28,-1,-1,-1,-1,-1,-1,-1,-1,-1,-1,-1,-1,-1,-1],"split_conditions":[2.3E1,6.6E0,2E0,1.95E2,1E0,6.46E0,6.78E0,-2.7178105E-2,1E0,6.94E0,5.82E0,5E0,3.2E1,3.49E2,7.4E0,5.530443E-4,-3.3430107E-2,-1.7960768E-2,1.7828068E-2,-1.7563863E-2,1.9727584E-3,1.0338363E-4,-2.7436068E-2,-2.548671E-3,1.4048386E-2,6.967293E-3,4.6089877E-5,9.608549E-3,1.6240722E-2],"split_indices":[29,55,21,48,0,56,56,0,103,56,56,12,42,48,55,0,0,0,0,0,0,0,0,0,0,0,0,0,0],"split_type":[0,0,0,0,0,0,0,0,0,0,0,0,0,0,0,0,0,0,0,0,0,0,0,0,0,0,0,0,0],"sum_hessian":[1.3307166E4,3.5977776E3,9.709389E3,1.5732773E3,2.0245001E3,2.5865298E3,7.122859E3,1.4664441E3,1.0683332E2,9.5929987E2,1.0652002E3,5.237475E2,2.0627825E3,2.7260527E3,4.396806E3,8.325707E1,2.357625E1,9.2625696E2,3.304292E1,5.802067E1,1.0071795E3,1.9127728E2,3.3247025E2,1.7166702E3,3.461122E2,1.7017319E3,1.0243209E3,3.3061594E3,1.0906465E3],"tree_param":{"num_deleted":"0","num_feature":"105","num_nodes":"29","size_leaf_vector":"1"}},{"base_weights":[-7.9059815E-3,-8.0645615E-1,3.5392433E-1,-1.3540754E0,-3.7563694E-1,-2.7129924E-1,4.2589664E-1,-2.7465986E-2,-1.0697095E0,-8.124224E-1,1.3732886E-3,-4.4464552E-1,4.0672E-1,3.416688E-1,7.2389305E-1,-1.6463385E-3,-2.4958288E-2,-1.833814E-2,-4.1538253E-3,2.2213315E-3,-1.0295261E-2,-1.4862002E-2,-4.80304E-3,-1.9023167E-2,1.1891842E-2,4.1063996E-3,1.10493945E-2,5.7298113E-3,1.5274679E-2],"categories":[],"categories_nodes":[],"categories_segments":[],"categories_sizes":[],"default_left":[0,0,0,0,0,0,0,0,0,0,0,0,0,0,0,0,0,0,0,0,0,0,0,0,0,0,0,0,0],"id":31,"left_children":[1,3,5,7,9,11,13,-1,15,17,19,21,23,25,27,-1,-1,-1,-1,-1,-1,-1,-1,-1,-1,-1,-1,-1,-1],"loss_changes":[3.8551787E3,9.7736865E2,4.1382898E2,2.1118164E-1,3.8560715E2,1.12515366E2,2.0441492E2,0E0,2.3095581E1,6.6401245E1,7.110206E1,4.4482956E1,5.2146572E1,1.8357776E2,2.9359314E1,0E0,0E0,0E0,0E0,0E0,0E0,0E0,0E0,0E0,0E0,0E0,0E0,0E0,0E0],"parents":[2147483647,0,0,1,1,2,2,3,3,4,4,5,5,6,6,8,8,9,9,10,10,11,11,12,12,13,13,14,14],"right_children":[2,4,6,8,10,12,14,-1,16,18,20,22,24,26,28,-1,-1,-1,-1,-1,-1,-1,-1,-1,-1,-1,-1,-1,-1],"split_conditions":[4.35E1,6.6E0,6.1E1,6.3333335E0,1E0,7.0333333E0,7.266667E0,-2.7465986E-2,5E0,5E0,3.7E1,1E0,2.59E2,1E0,5E0,-1.6463385E-3,-2.4958288E-2,-1.833814E-2,-4.1538253E-3,2.2213315E-3,-1.0295261E-2,-1.4862002E-2,-4.80304E-3,-1.9023167E-2,1.1891842E-2,4.1063996E-3,1.10493945E-2,5.7298113E-3,1.5274679E-2],"split_indices":[28,55,18,55,0,55,55,0,31,50,17,0,48,104,50,0,0,0,0,0,0,0,0,0,0,0,0,0,0],"split_type":[0,0,0,0,0,0,0,0,0,0,0,0,0,0,0,0,0,0,0,0,0,0,0,0,0,0,0,0,0],"sum_hessian":[1.3330999E4,4.1558237E3,9.175176E3,1.8241232E3,2.3317004E3,9.4429974E2,8.230876E3,1.6873881E3,1.3673509E2,1.0787694E3,1.2529312E3,7.545763E2,1.8972342E2,6.4280845E3,1.8027911E3,2.2880522E1,1.13854576E2,9.162297E2,1.6253969E2,1.0381558E3,2.1477536E2,2.9946014E2,4.5511615E2,1.9943256E1,1.6978017E2,3.9122212E3,2.515863E3,1.5601381E2,1.6467773E3],"tree_param":{"num_deleted":"0","num_feature":"105","num_nodes":"29","size_leaf_vector":"1"}},{"base_weights":[4.477405E-3,-6.823928E-1,2.8798133E-1,-1.2274245E0,-2.7811414E-1,-1.0421822E-1,4.2592216E-1,-1.3039296E0,-4.5893632E-2,1.03617385E-1,-7.206276E-1,-6.0672194E-1,7.0404716E-2,3.027164E-1,6.3615155E-1,-2.6432006E-2,-1.10729635E-2,4.595859E-3,-3.0283522E-2,2.7778004E-3,-3.0223425E-2,-1.7258588E-2,1.0640217E-2,6.6139684E-3,-2.2151656E-2,-1.5980682E-3,7.231862E-3,4.0453137E-3,1.2135647E-2,1.0887063E-2,1.6345266E-2],"categories":[],"categories_nodes":[],"categories_segments":[],"categories_sizes":[],"default_left":[0,0,0,0,0,0,0,0,0,0,0,0,0,0,0,0,0,0,0,0,0,0,0,0,0,0,0,0,0,0,0],"id":32,"left_children":[1,3,5,7,9,11,13,15,17,19,21,23,25,27,29,-1,-1,-1,-1,-1,-1,-1,-1,-1,-1,-1,-1,-1,-1,-1,-1],"loss_changes":[2.6061912E3,8.582717E2,5.131904E2,1.486289E2,3.814381E2,2.1728879E2,1.797489E2,1.5154297E1,4.6368008E1,6.8727715E1,1.8888422E2,3.0234418E2,8.071087E1,1.3401672E2,3.9372437E1,0E0,0E0,0E0,0E0,0E0,0E0,0E0,0E0,0E0,0E0,0E0,0E0,0E0,0E0,0E0,0E0],"parents":[2147483647,0,0,1,1,2,2,3,3,4,4,5,5,6,6,7,7,8,8,9,9,10,10,11,11,12,12,13,13,14,14],"right_children":[2,4,6,8,10,12,14,16,18,20,22,24,26,28,30,-1,-1,-1,-1,-1,-1,-1,-1,-1,-1,-1,-1,-1,-1,-1,-1],"split_conditions":[2.85E1,6.6E0,1.45E2,1.94E2,1E0,6.6E0,7.1E0,3E0,1E0,7.777778E-1,-3.390527E-2,5E0,6.3E1,1E0,7.5E0,-2.6432006E-2,-1.10729635E-2,4.595859E-3,-3.0283522E-2,2.7778004E-3,-3.0223425E-2,-1.7258588E-2,1.0640217E-2,6.6139684E-3,-2.2151656E-2,-1.5980682E-3,7.231862E-3,4.0453137E-3,1.2135647E-2,1.0887063E-2,1.6345266E-2],"split_indices":[29,55,18,18,98,55,55,49,103,51,67,12,16,98,55,0,0,0,0,0,0,0,0,0,0,0,0,0,0,0,0],"split_type":[0,0,0,0,0,0,0,0,0,0,0,0,0,0,0,0,0,0,0,0,0,0,0,0,0,0,0,0,0,0,0],"sum_hessian":[1.3375566E4,3.9047117E3,9.4708545E3,1.6574935E3,2.247218E3,2.4627173E3,7.008137E3,1.5554149E3,1.0207859E2,1.2073094E3,1.0399087E3,6.333918E2,1.8293254E3,4.429291E3,2.578846E3,1.5146024E3,4.0812527E1,8.891939E1,1.3159206E1,1.1865796E3,2.0729837E1,9.3593835E2,1.0397035E2,2.204659E2,4.1292587E2,1.2066567E3,6.226687E2,3.3381277E3,1.0911635E3,1.7283589E3,8.504871E2],"tree_param":{"num_deleted":"0","num_feature":"105","num_nodes":"31","size_leaf_vector":"1"}},{"base_weights":[-1.2839301E-3,-7.7905566E-1,3.4590754E-1,-1.3297899E0,-3.577814E-1,1.2304126E-1,5.25055E-1,-2.7099239E-2,-9.9246573E-1,-7.98138E-1,1.1084162E-2,6.450682E-1,-7.072012E-2,7.7961403E-1,4.1206118E-1,1.4426912E-3,-2.4618372E-2,-1.8348472E-2,3.1954898E-3,-2.6375119E-2,1.499958E-3,1.5605092E-2,6.597076E-3,-2.406213E-2,1.9446234E-3,1.723393E-2,1.158059E-2,-2.1619784E-2,9.539036E-3],"categories":[],"categories_nodes":[],"categories_segments":[],"categories_sizes":[],"default_left":[0,0,0,0,0,0,0,0,0,0,0,0,0,0,0,0,0,0,0,0,0,0,0,0,0,0,0,0,0],"id":33,"left_children":[1,3,5,7,9,11,13,-1,15,17,19,21,23,25,27,-1,-1,-1,-1,-1,-1,-1,-1,-1,-1,-1,-1,-1,-1],"loss_changes":[3.600745E3,9.508164E2,3.6702783E2,6.050537E0,3.808901E2,4.1716714E2,1.440597E2,0E0,3.84413E1,1.2350842E2,1.0778517E2,4.516626E1,5.732346E2,2.177008E1,3.4585828E2,0E0,0E0,0E0,0E0,0E0,0E0,0E0,0E0,0E0,0E0,0E0,0E0,0E0,0E0],"parents":[2147483647,0,0,1,1,2,2,3,3,4,4,5,5,6,6,8,8,9,9,10,10,11,11,12,12,13,13,14,14],"right_children":[2,4,6,8,10,12,14,-1,16,18,20,22,24,26,28,-1,-1,-1,-1,-1,-1,-1,-1,-1,-1,-1,-1,-1,-1],"split_conditions":[4.5E1,6.6E0,2E0,6.3333335E0,1E0,5E0,7.8055555E-1,-2.7099239E-2,5E0,6.72E0,6.04E0,2E0,6.6E0,7.4E1,6.45E1,1.4426912E-3,-2.4618372E-2,-1.8348472E-2,3.1954898E-3,-2.6375119E-2,1.499958E-3,1.5605092E-2,6.597076E-3,-2.406213E-2,1.9446234E-3,1.723393E-2,1.158059E-2,-2.1619784E-2,9.539036E-3],"split_indices":[28,55,27,55,97,12,51,0,31,56,56,23,55,29,29,0,0,0,0,0,0,0,0,0,0,0,0,0,0],"split_type":[0,0,0,0,0,0,0,0,0,0,0,0,0,0,0,0,0,0,0,0,0,0,0,0,0,0,0,0,0],"sum_hessian":[1.3322735E4,4.110695E3,9.21204E3,1.7758975E3,2.3347974E3,4.1113633E3,5.100677E3,1.6357821E3,1.4011536E2,1.0628479E3,1.2719496E3,1.111176E3,3.0001873E3,1.5562711E3,3.5444058E3,2.5511244E1,1.1460412E2,9.4626764E2,1.1658024E2,5.3108974E1,1.2188406E3,7.702774E2,3.4089865E2,3.8429218E2,2.6158953E3,1.0891199E3,4.671512E2,1.4372713E2,3.4006785E3],"tree_param":{"num_deleted":"0","num_feature":"105","num_nodes":"29","size_leaf_vector":"1"}},{"base_weights":[-9.143926E-3,-5.648138E-1,3.4504795E-1,-1.2134538E0,-2.4272266E-1,1.3760324E-1,5.413781E-1,-1.3219869E0,-4.2781073E-1,-7.365626E-1,9.969763E-2,4.5219207E-1,-8.6409956E-2,4.591648E-1,8.050338E-1,-2.664658E-2,-0E0,-1.3041532E-2,5.4810713E-3,-1.886124E-2,-3.5344441E-3,5.469645E-4,1.4619403E-2,1.6902126E-2,5.5964077E-3,-1.0314211E-2,8.936464E-3,1.2275445E-2,6.259374E-3,1.7258175E-2,1.0713837E-2],"categories":[],"categories_nodes":[],"categories_segments":[],"categories_sizes":[],"default_left":[0,0,0,0,0,0,0,0,0,0,0,0,0,0,0,0,0,0,0,0,0,0,0,0,0,0,0,0,0,0,0],"id":34,"left_children":[1,3,5,7,9,11,13,15,17,19,21,23,25,27,29,-1,-1,-1,-1,-1,-1,-1,-1,-1,-1,-1,-1,-1,-1,-1,-1],"loss_changes":[2.6033533E3,1.0729832E3,3.2788873E2,1.4092871E2,5.841302E2,2.77961E2,8.674048E1,2.1139648E1,3.521356E1,1.6149078E2,9.229477E1,1.0875418E2,5.280691E2,6.986536E1,1.1501221E1,0E0,0E0,0E0,0E0,0E0,0E0,0E0,0E0,0E0,0E0,0E0,0E0,0E0,0E0,0E0,0E0],"parents":[2147483647,0,0,1,1,2,2,3,3,4,4,5,5,6,6,7,7,8,8,9,9,10,10,11,11,12,12,13,13,14,14],"right_children":[2,4,6,8,10,12,14,16,18,20,22,24,26,28,30,-1,-1,-1,-1,-1,-1,-1,-1,-1,-1,-1,-1,-1,-1,-1,-1],"split_conditions":[2.12E2,6.46E0,6.88E0,1.82E2,1E0,5E0,7.38E0,3E0,3E0,1.6E1,6.2E1,7.6E1,2E0,7.94E1,1.1E1,-2.664658E-2,-0E0,-1.3041532E-2,5.4810713E-3,-1.886124E-2,-3.5344441E-3,5.469645E-4,1.4619403E-2,1.6902126E-2,5.5964077E-3,-1.0314211E-2,8.936464E-3,1.2275445E-2,6.259374E-3,1.7258175E-2,1.0713837E-2],"split_indices":[48,56,56,48,0,12,56,49,49,17,42,15,26,32,59,0,0,0,0,0,0,0,0,0,0,0,0,0,0,0,0],"split_type":[0,0,0,0,0,0,0,0,0,0,0,0,0,0,0,0,0,0,0,0,0,0,0,0,0,0,0,0,0,0,0],"sum_hessian":[1.3216429E4,5.144846E3,8.0715825E3,1.7014523E3,3.4433938E3,3.9313108E3,4.140272E3,1.4908162E3,2.1063605E2,1.4087926E3,2.0346012E3,1.6348334E3,2.2964773E3,3.1694675E3,9.708045E2,1.4795929E3,1.1223278E1,1.609783E2,4.965775E1,1.0253713E3,3.8342126E2,1.8314963E3,2.0310492E2,4.907876E2,1.1440458E3,1.2733531E3,1.0231242E3,1.5293232E3,1.6401442E3,7.86972E2,1.8383247E2],"tree_param":{"num_deleted":"0","num_feature":"105","num_nodes":"31","size_leaf_vector":"1"}},{"base_weights":[2.7665775E-3,-7.508408E-1,3.3727348E-1,-1.3197917E0,-3.230477E-1,1.2181876E-1,5.0908756E-1,-1.3221884E0,-5.1105586E-3,-7.396417E-1,3.0189302E-2,5.941684E-1,-5.26785E-2,7.715977E-1,4.1147822E-1,-2.649023E-2,-5.231777E-3,-1.6993714E-2,8.842136E-3,-2.5966857E-2,1.8632365E-3,1.6089877E-2,5.3533344E-3,-2.307017E-2,2.3193918E-3,1.3962145E-2,1.9704465E-2,4.1821576E-3,1.217584E-2],"categories":[],"categories_nodes":[],"categories_segments":[],"categories_sizes":[],"default_left":[0,0,0,0,0,0,0,0,0,0,0,0,0,0,0,0,0,0,0,0,0,0,0,0,0,0,0,0,0],"id":35,"left_children":[1,3,5,7,9,11,13,15,-1,17,19,21,23,25,27,-1,-1,-1,-1,-1,-1,-1,-1,-1,-1,-1,-1,-1,-1],"loss_changes":[3.335803E3,9.86249E2,3.3839624E2,1.1794434E0,3.4361356E2,3.3666135E2,1.2779956E2,9.616699E-1,0E0,1.4148016E2,1.05154045E2,7.349524E1,5.5486255E2,1.6428284E1,1.4740784E2,0E0,0E0,0E0,0E0,0E0,0E0,0E0,0E0,0E0,0E0,0E0,0E0,0E0,0E0],"parents":[2147483647,0,0,1,1,2,2,3,3,4,4,5,5,6,6,7,7,9,9,10,10,11,11,12,12,13,13,14,14],"right_children":[2,4,6,8,10,12,14,16,-1,18,20,22,24,26,28,-1,-1,-1,-1,-1,-1,-1,-1,-1,-1,-1,-1,-1,-1],"split_conditions":[4.35E1,6.6E0,2E0,8E0,1E0,5E0,7.6222223E-1,3.194706E0,-5.1105586E-3,6.82E0,6.04E0,2.45E2,6.6E0,3.8E1,6.98E0,-2.649023E-2,-5.231777E-3,-1.6993714E-2,8.842136E-3,-2.5966857E-2,1.8632365E-3,1.6089877E-2,5.3533344E-3,-2.307017E-2,2.3193918E-3,1.3962145E-2,1.9704465E-2,4.1821576E-3,1.217584E-2],"split_indices":[28,55,27,57,97,12,51,74,0,56,56,18,55,42,56,0,0,0,0,0,0,0,0,0,0,0,0,0,0],"split_type":[0,0,0,0,0,0,0,0,0,0,0,0,0,0,0,0,0,0,0,0,0,0,0,0,0,0,0,0,0],"sum_hessian":[1.322437E4,4.0625894E3,9.161781E3,1.7381471E3,2.3244424E3,4.0710513E3,5.09073E3,1.732095E3,6.05203E0,1.0653597E3,1.2590825E3,1.0965328E3,2.9745183E3,1.3676929E3,3.723037E3,1.7261271E3,5.9679217E0,9.766643E2,8.869552E1,5.1822144E1,1.2072604E3,6.6060345E2,4.3592938E2,3.9206863E2,2.5824497E3,1.0369774E3,3.307154E2,1.8455541E3,1.8774829E3],"tree_param":{"num_deleted":"0","num_feature":"105","num_nodes":"29","size_leaf_vector":"1"}},{"base_weights":[2.0944306E-3,-7.421255E-1,3.2209763E-1,-2.6597273E-2,-3.5036266E-1,-2.6177207E-1,3.916907E-1,-7.431369E-1,1.4446653E-2,-4.4513738E-1,4.1753075E-1,3.0889657E-1,6.604194E-1,-1.6824776E-2,8.317938E-3,3.9072046E-3,-3.8136991E-3,1.3861194E-2,-1.14853745E-2,-1.2168232E-2,9.311287E-3,3.454962E-3,1.0204268E-2,1.1479186E-2,1.8358093E-2],"categories":[],"categories_nodes":[],"categories_segments":[],"categories_sizes":[],"default_left":[0,0,0,0,0,0,0,0,0,0,0,0,0,0,0,0,0,0,0,0,0,0,0,0,0],"id":36,"left_children":[1,3,5,-1,7,9,11,13,15,17,19,21,23,-1,-1,-1,-1,-1,-1,-1,-1,-1,-1,-1,-1],"loss_changes":[3.1574636E3,9.138308E2,3.7746295E2,0E0,3.4462827E2,1.24160225E2,1.8244666E2,1.3372601E2,4.6495163E1,1.16872314E2,1.170401E1,1.7290613E2,3.9178467E1,0E0,0E0,0E0,0E0,0E0,0E0,0E0,0E0,0E0,0E0,0E0,0E0],"parents":[2147483647,0,0,1,1,2,2,4,4,5,5,6,6,7,7,8,8,9,9,10,10,11,11,12,12],"right_children":[2,4,6,-1,8,10,12,14,16,18,20,22,24,-1,-1,-1,-1,-1,-1,-1,-1,-1,-1,-1,-1],"split_conditions":[3.75E1,6.46E0,6.1E1,-2.6597273E-2,1E0,6.9E0,7.16E0,6.84E0,1E0,5E0,3.4861103E-1,1E0,7.56E0,-1.6824776E-2,8.317938E-3,3.9072046E-3,-3.8136991E-3,1.3861194E-2,-1.14853745E-2,-1.2168232E-2,9.311287E-3,3.454962E-3,1.0204268E-2,1.1479186E-2,1.8358093E-2],"split_indices":[28,56,18,0,97,56,56,56,95,12,67,104,56,0,0,0,0,0,0,0,0,0,0,0,0],"split_type":[0,0,0,0,0,0,0,0,0,0,0,0,0,0,0,0,0,0,0,0,0,0,0,0,0],"sum_hessian":[1.324989E4,3.9812107E3,9.26868E3,1.586522E3,2.3946887E3,9.841037E2,8.284575E3,1.1519694E3,1.2427192E3,7.7744293E2,2.0666077E2,6.344371E3,1.9402043E3,1.0641337E3,8.783573E1,6.630567E2,5.7966254E2,7.620174E1,7.0124115E2,5.7028966E0,2.0095787E2,3.793276E3,2.5510955E3,1.4674751E3,4.7272925E2],"tree_param":{"num_deleted":"0","num_feature":"105","num_nodes":"25","size_leaf_vector":"1"}},{"base_weights":[-1.2009812E-3,-7.4178666E-1,3.1486982E-1,-2.6483018E-2,-3.5515526E-1,-1.5410799E-1,3.969499E-1,-4.1177955E-1,3.3122122E-1,-2.94106E-1,5.67929E-1,3.1603748E-1,6.098704E-1,-1.3440235E-2,-4.115316E-3,1.1050754E-2,-5.845632E-3,-7.998652E-3,1.2096014E-2,1.3841809E-2,-4.8210964E-5,4.141089E-3,1.26737235E-2,1.0722023E-2,1.7494299E-2],"categories":[],"categories_nodes":[],"categories_segments":[],"categories_sizes":[],"default_left":[0,0,0,0,0,0,0,0,0,0,0,0,0,0,0,0,0,0,0,0,0,0,0,0,0],"id":37,"left_children":[1,3,5,-1,7,9,11,13,15,17,19,21,23,-1,-1,-1,-1,-1,-1,-1,-1,-1,-1,-1,-1],"loss_changes":[3.080072E3,8.8228296E2,3.554673E2,0E0,9.301434E1,1.3956468E2,1.3334973E2,1.16177246E2,2.6226187E1,1.1099729E2,1.6551376E1,1.959024E2,3.830603E1,0E0,0E0,0E0,0E0,0E0,0E0,0E0,0E0,0E0,0E0,0E0,0E0],"parents":[2147483647,0,0,1,1,2,2,4,4,5,5,6,6,7,7,8,8,9,9,10,10,11,11,12,12],"right_children":[2,4,6,-1,8,10,12,14,16,18,20,22,24,-1,-1,-1,-1,-1,-1,-1,-1,-1,-1,-1,-1],"split_conditions":[3.7E1,6.46E0,1E0,-2.6483018E-2,6.82E0,7.04E0,7.12E0,1E0,2.95E1,2E0,8.95E1,9E0,7.56E0,-1.3440235E-2,-4.115316E-3,1.1050754E-2,-5.845632E-3,-7.998652E-3,1.2096014E-2,1.3841809E-2,-4.8210964E-5,4.141089E-3,1.26737235E-2,1.0722023E-2,1.7494299E-2],"split_indices":[28,56,16,0,56,56,56,1,28,26,32,42,56,0,0,0,0,0,0,0,0,0,0,0,0],"split_type":[0,0,0,0,0,0,0,0,0,0,0,0,0,0,0,0,0,0,0,0,0,0,0,0,0],"sum_hessian":[1.314653E4,3.9313684E3,9.215162E3,1.5627549E3,2.3686135E3,1.3701304E3,7.8450317E3,2.1912947E3,1.7731885E2,1.1512577E3,2.1887263E2,5.697159E3,2.1478728E3,9.6109534E2,1.2301992E3,1.3247049E2,4.4848362E1,1.0334763E3,1.1778131E2,1.803064E2,3.856623E1,4.250314E3,1.4468452E3,1.6947247E3,4.5314798E2],"tree_param":{"num_deleted":"0","num_feature":"105","num_nodes":"25","size_leaf_vector":"1"}},{"base_weights":[-1.4237146E-3,-7.465563E-1,3.1490818E-1,-1.2869037E0,-3.4611058E-1,1.07753195E-1,4.842887E-1,-1.2893426E0,-3.7527147E-3,-7.481168E-1,-3.6094089E-3,5.952491E-1,-7.4509494E-2,6.317273E-1,2.9916638E-1,-2.6213663E-2,-1.9904926E-2,-1.5794933E-2,1.3184641E-2,1.9236496E-3,-1.1051E-2,1.3758537E-2,2.193429E-3,-2.2529963E-2,1.4934797E-3,8.8604195E-3,1.37675E-2,3.213319E-3,1.2891835E-2],"categories":[],"categories_nodes":[],"categories_segments":[],"categories_sizes":[],"default_left":[0,0,0,0,0,0,0,0,0,0,0,0,0,0,0,0,0,0,0,0,0,0,0,0,0,0,0,0,0],"id":38,"left_children":[1,3,5,7,9,11,13,15,-1,17,19,21,23,25,27,-1,-1,-1,-1,-1,-1,-1,-1,-1,-1,-1,-1,-1,-1],"loss_changes":[3.0981145E3,8.4379443E2,3.228181E2,1.776123E0,3.101189E2,3.7024823E2,1.365299E2,1.5847168E0,0E0,6.3509766E1,6.7857315E1,4.984659E1,4.76983E2,2.7438232E1,1.0682997E2,0E0,0E0,0E0,0E0,0E0,0E0,0E0,0E0,0E0,0E0,0E0,0E0,0E0,0E0],"parents":[2147483647,0,0,1,1,2,2,3,3,4,4,5,5,6,6,7,7,9,9,10,10,11,11,12,12,13,13,14,14],"right_children":[2,4,6,8,10,12,14,16,-1,18,20,22,24,26,28,-1,-1,-1,-1,-1,-1,-1,-1,-1,-1,-1,-1,-1,-1],"split_conditions":[3.65E1,6.6E0,2E0,2.6197546E0,1E0,5E0,8.03E1,6.3333335E0,-3.7527147E-3,7.266667E0,4.4E1,2.66E2,6.5666666E0,2E0,7.3E0,-2.6213663E-2,-1.9904926E-2,-1.5794933E-2,1.3184641E-2,1.9236496E-3,-1.1051E-2,1.3758537E-2,2.193429E-3,-2.2529963E-2,1.4934797E-3,8.8604195E-3,1.37675E-2,3.213319E-3,1.2891835E-2],"split_indices":[28,55,27,74,0,12,32,55,0,55,17,17,55,26,55,0,0,0,0,0,0,0,0,0,0,0,0,0,0],"split_type":[0,0,0,0,0,0,0,0,0,0,0,0,0,0,0,0,0,0,0,0,0,0,0,0,0,0,0,0,0],"sum_hessian":[1.3131983E4,3.912438E3,9.219545E3,1.6595428E3,2.252895E3,4.153651E3,5.065894E3,1.6540988E3,5.4442034E0,1.0323486E3,1.2205465E3,1.1287511E3,3.0249001E3,2.8102432E3,2.255651E3,1.5229088E3,1.311899E2,1.00550995E3,2.683862E1,1.0347428E3,1.858036E2,9.4436554E2,1.843855E2,3.7245163E2,2.6524485E3,6.630927E2,2.1471504E3,1.6173751E3,6.382758E2],"tree_param":{"num_deleted":"0","num_feature":"105","num_nodes":"29","size_leaf_vector":"1"}},{"base_weights":[4.1652806E-3,-7.341163E-1,3.179708E-1,-1.0388249E0,-2.8727925E-1,-2.3062453E-1,3.8338733E-1,-1.1016871E0,-4.6438444E-1,2.3338767E-2,-8.8125926E-1,-3.4878516E-1,2.1047123E-1,3.1270278E-1,6.032116E-1,-1.8962378E-2,-2.5650399E-2,-1.3166464E-2,1.5410325E-3,1.4568339E-3,-1.9508887E-2,-2.0060038E-2,4.9723936E-3,-1.35100195E-2,-2.3715156E-3,-3.984373E-3,9.866211E-3,4.888423E-3,1.0849563E-2,1.3560793E-2,8.301967E-3],"categories":[],"categories_nodes":[],"categories_segments":[],"categories_sizes":[],"default_left":[0,0,0,0,0,0,0,0,0,0,0,0,0,0,0,0,0,0,0,0,0,0,0,0,0,0,0,0,0,0,0],"id":39,"left_children":[1,3,5,7,9,11,13,15,17,19,21,23,25,27,29,-1,-1,-1,-1,-1,-1,-1,-1,-1,-1,-1,-1,-1,-1,-1,-1],"loss_changes":[3.0335083E3,5.28874E2,3.3041333E2,7.9599365E1,2.9459668E2,5.161626E1,1.2578369E2,4.957959E1,2.5921494E1,5.1307705E1,7.734302E1,5.725466E1,2.4948101E1,9.629285E1,2.5510254E1,0E0,0E0,0E0,0E0,0E0,0E0,0E0,0E0,0E0,0E0,0E0,0E0,0E0,0E0,0E0,0E0],"parents":[2147483647,0,0,1,1,2,2,3,3,4,4,5,5,6,6,7,7,8,8,9,9,10,10,11,11,12,12,13,13,14,14],"right_children":[2,4,6,8,10,12,14,16,18,20,22,24,26,28,30,-1,-1,-1,-1,-1,-1,-1,-1,-1,-1,-1,-1,-1,-1,-1,-1],"split_conditions":[3.75E1,1E0,2.8E1,5E0,1E0,9.238816E-1,6E0,1E0,5.498029E-1,1E0,6E0,1E0,3E0,9E0,3E0,-1.8962378E-2,-2.5650399E-2,-1.3166464E-2,1.5410325E-3,1.4568339E-3,-1.9508887E-2,-2.0060038E-2,4.9723936E-3,-1.35100195E-2,-2.3715156E-3,-3.984373E-3,9.866211E-3,4.888423E-3,1.0849563E-2,1.3560793E-2,8.301967E-3],"split_indices":[28,0,17,50,30,67,57,27,73,27,57,0,57,42,60,0,0,0,0,0,0,0,0,0,0,0,0,0,0,0,0],"split_type":[0,0,0,0,0,0,0,0,0,0,0,0,0,0,0,0,0,0,0,0,0,0,0,0,0,0,0,0,0,0,0],"sum_hessian":[1.3085465E4,3.9000474E3,9.185418E3,2.313533E3,1.5865145E3,9.756361E2,8.209781E3,2.0796255E3,2.3390755E2,1.0437909E3,5.4272363E2,7.721155E2,2.0352066E2,6.2248423E3,1.984939E3,1.1444619E3,9.351635E2,1.7278471E2,6.112282E1,9.998706E2,4.3920265E1,4.9123984E2,5.14838E1,3.133666E2,4.5874887E2,8.228064E1,1.2124001E2,4.810109E3,1.4147338E3,1.4069435E3,5.779955E2],"tree_param":{"num_deleted":"0","num_feature":"105","num_nodes":"31","size_leaf_vector":"1"}},{"base_weights":[2.269799E-3,-6.4295065E-1,2.4121024E-1,-1.2113011E0,-2.86377E-1,4.6779003E-2,4.7825614E-1,-1.2786474E0,-3.5925913E-1,-7.005198E-1,6.834434E-2,-3.010858E-1,1.9778858E-1,3.493022E-1,6.7339855E-1,-2.5825495E-2,-1.3335317E-2,-3.2254804E-2,1.5450147E-3,-1.6684745E-2,7.602933E-3,-2.0895593E-2,2.4774491E-3,7.4153296E-3,-8.259579E-3,1.6431836E-3,1.0293008E-2,1.0540357E-2,3.984867E-3,1.2279848E-2,1.8102018E-2],"categories":[],"categories_nodes":[],"categories_segments":[],"categories_sizes":[],"default_left":[0,0,0,0,0,0,0,0,0,0,0,0,0,0,0,0,0,0,0,0,0,0,0,0,0,0,0,0,0,0,0],"id":40,"left_children":[1,3,5,7,9,11,13,15,17,19,21,23,25,27,29,-1,-1,-1,-1,-1,-1,-1,-1,-1,-1,-1,-1,-1,-1,-1,-1],"loss_changes":[2.0126437E3,7.1166064E2,4.3858203E2,7.395032E1,3.2042902E2,2.756324E2,1.057923E2,3.432373E0,6.0959137E1,1.4731223E2,7.2349045E1,1.201223E2,1.3333304E2,6.80155E1,1.9088745E1,0E0,0E0,0E0,0E0,0E0,0E0,0E0,0E0,0E0,0E0,0E0,0E0,0E0,0E0,0E0,0E0],"parents":[2147483647,0,0,1,1,2,2,3,3,4,4,5,5,6,6,7,7,8,8,9,9,10,10,11,11,12,12,13,13,14,14],"right_children":[2,4,6,8,10,12,14,16,18,20,22,24,26,28,30,-1,-1,-1,-1,-1,-1,-1,-1,-1,-1,-1,-1,-1,-1,-1,-1],"split_conditions":[2.5E1,6.3333335E0,6.86E0,1.93E2,1E0,1E0,7.266667E0,2.4E1,1E0,6.64E0,5.52E0,5E0,2.4E1,8.95E1,7.8E0,-2.5825495E-2,-1.3335317E-2,-3.2254804E-2,1.5450147E-3,-1.6684745E-2,7.602933E-3,-2.0895593E-2,2.4774491E-3,7.4153296E-3,-8.259579E-3,1.6431836E-3,1.0293008E-2,1.0540357E-2,3.984867E-3,1.2279848E-2,1.8102018E-2],"split_indices":[29,55,56,48,0,20,55,62,104,56,56,12,42,29,55,0,0,0,0,0,0,0,0,0,0,0,0,0,0,0,0],"split_type":[0,0,0,0,0,0,0,0,0,0,0,0,0,0,0,0,0,0,0,0,0,0,0,0,0,0,0,0,0,0,0],"sum_hessian":[1.3047344E4,3.522569E3,9.524774E3,1.3523074E3,2.1702617E3,5.238349E3,4.2864253E3,1.2498414E3,1.0246592E2,1.0003187E3,1.169943E3,1.5821428E3,3.6562063E3,2.5923943E3,1.6940308E3,1.2175295E3,3.2311924E1,2.357778E1,7.888814E1,8.920104E2,1.0830833E2,5.050132E1,1.1194417E3,2.2295065E2,1.3591921E3,2.6856206E3,9.705857E2,1.178026E3,1.4143684E3,1.3662924E3,3.277384E2],"tree_param":{"num_deleted":"0","num_feature":"105","num_nodes":"31","size_leaf_vector":"1"}},{"base_weights":[3.0522365E-3,-7.0183754E-1,3.06765E-1,-1.2705569E0,-2.975552E-1,3.7721387E-1,-2.0573245E-1,-2.5826313E-2,-9.760736E-1,-6.899569E-1,2.578079E-2,2.5438917E-1,5.1989704E-1,-4.224589E-1,3.649952E-1,-0E0,-2.4148379E-2,-1.5279852E-2,5.426018E-3,-2.5021212E-2,1.670389E-3,1.0893559E-2,1.2719026E-3,1.5850695E-2,7.8533795E-3,-2.221982E-2,-6.0114097E-3,3.4351062E-3,1.6435081E-2],"categories":[],"categories_nodes":[],"categories_segments":[],"categories_sizes":[],"default_left":[0,0,0,0,0,0,0,0,0,0,0,0,0,0,0,0,0,0,0,0,0,0,0,0,0,0,0,0,0],"id":41,"left_children":[1,3,5,7,9,11,13,-1,15,17,19,21,23,25,27,-1,-1,-1,-1,-1,-1,-1,-1,-1,-1,-1,-1,-1,-1],"loss_changes":[2.801988E3,9.026089E2,3.3089514E2,1.4245605E0,2.939569E2,1.3959045E2,1.3778177E2,0E0,3.0542305E1,7.593735E1,9.3011185E1,2.3948364E2,1.26089294E2,6.4567474E1,2.5322365E1,0E0,0E0,0E0,0E0,0E0,0E0,0E0,0E0,0E0,0E0,0E0,0E0,0E0,0E0],"parents":[2147483647,0,0,1,1,2,2,3,3,4,4,5,5,6,6,8,8,9,9,10,10,11,11,12,12,13,13,14,14],"right_children":[2,4,6,8,10,12,14,-1,16,18,20,22,24,26,28,-1,-1,-1,-1,-1,-1,-1,-1,-1,-1,-1,-1,-1,-1],"split_conditions":[4.35E1,6.6E0,1.6E1,6.3333335E0,1E0,2E0,7E0,-2.5826313E-2,5E0,6.86E0,6.04E0,5E0,1E0,6.5E0,7.4666667E0,-0E0,-2.4148379E-2,-1.5279852E-2,5.426018E-3,-2.5021212E-2,1.670389E-3,1.0893559E-2,1.2719026E-3,1.5850695E-2,7.8533795E-3,-2.221982E-2,-6.0114097E-3,3.4351062E-3,1.6435081E-2],"split_indices":[28,55,12,55,97,26,55,0,31,56,56,12,103,55,55,0,0,0,0,0,0,0,0,0,0,0,0,0,0],"split_type":[0,0,0,0,0,0,0,0,0,0,0,0,0,0,0,0,0,0,0,0,0,0,0,0,0,0,0,0,0],"sum_hessian":[1.308008E4,3.9357393E3,9.144341E3,1.6298208E3,2.3059185E3,8.0421265E3,1.1022147E3,1.5035144E3,1.2630632E2,1.0405394E3,1.265379E3,4.33306E3,3.7090662E3,8.0106995E2,3.011448E2,2.4546825E1,1.017595E2,9.6804724E2,7.249223E1,4.9524708E1,1.2158542E3,1.7127042E3,2.620356E3,1.1693191E3,2.539747E3,1.1314571E2,6.879242E2,2.1798987E2,8.315495E1],"tree_param":{"num_deleted":"0","num_feature":"105","num_nodes":"29","size_leaf_vector":"1"}},{"base_weights":[9.432025E-3,-6.7919946E-1,2.9661027E-1,-1.2565249E0,-2.7732262E-1,1.13245696E-1,4.4679826E-1,-1.2741016E0,-8.6249614E-1,-6.6897357E-1,4.542892E-2,3.2676276E-2,6.9002366E-1,5.8307946E-1,2.7527165E-1,-2.5538571E-2,-2.607882E-3,-1.9965405E-3,-2.17628E-2,-1.517554E-2,6.9218064E-3,-2.4565103E-2,2.0155658E-3,-3.4068907E-3,6.8900995E-3,1.7500242E-2,6.2034545E-3,1.45514775E-2,9.872089E-3,4.1564624E-3,1.696075E-2],"categories":[],"categories_nodes":[],"categories_segments":[],"categories_sizes":[],"default_left":[0,0,0,0,0,0,0,0,0,0,0,0,0,0,0,0,0,0,0,0,0,0,0,0,0,0,0,0,0,0,0],"id":42,"left_children":[1,3,5,7,9,11,13,15,17,19,21,23,25,27,29,-1,-1,-1,-1,-1,-1,-1,-1,-1,-1,-1,-1,-1,-1,-1,-1],"loss_changes":[2.5668684E3,8.8289136E2,2.515033E2,3.208252E0,2.8637003E2,1.9132506E2,1.1596643E2,2.5627441E0,1.2852268E1,9.492758E1,8.704267E1,2.3059329E2,3.2947235E1,3.3136475E1,8.462334E1,0E0,0E0,0E0,0E0,0E0,0E0,0E0,0E0,0E0,0E0,0E0,0E0,0E0,0E0,0E0,0E0],"parents":[2147483647,0,0,1,1,2,2,3,3,4,4,5,5,6,6,7,7,8,8,9,9,10,10,11,11,12,12,13,13,14,14],"right_children":[2,4,6,8,10,12,14,16,18,20,22,24,26,28,30,-1,-1,-1,-1,-1,-1,-1,-1,-1,-1,-1,-1,-1,-1,-1,-1],"split_conditions":[3.65E1,6.6E0,2E0,6.4666667E0,1E0,6.1E1,8.03E1,2.6197546E0,6E0,6.84E0,6.04E0,6.9333334E0,3E0,1E0,7.56E0,-2.5538571E-2,-2.607882E-3,-1.9965405E-3,-2.17628E-2,-1.517554E-2,6.9218064E-3,-2.4565103E-2,2.0155658E-3,-3.4068907E-3,6.8900995E-3,1.7500242E-2,6.2034545E-3,1.45514775E-2,9.872089E-3,4.1564624E-3,1.696075E-2],"split_indices":[28,55,27,55,0,42,32,74,31,56,56,55,54,23,56,0,0,0,0,0,0,0,0,0,0,0,0,0,0,0,0],"split_type":[0,0,0,0,0,0,0,0,0,0,0,0,0,0,0,0,0,0,0,0,0,0,0,0,0,0,0,0,0,0,0],"sum_hessian":[1.2971557E4,3.8144617E3,9.157095E3,1.5601174E3,2.2543442E3,4.1300923E3,5.027003E3,1.4803756E3,7.974182E1,1.0174404E3,1.2369038E3,3.6300344E3,5.0005807E2,2.7913752E3,2.2356277E3,1.4752725E3,5.103155E0,2.0864454E1,5.8877365E1,9.3680786E2,8.0632515E1,4.6347446E1,1.1905563E3,2.1980332E3,1.4320011E3,3.301323E2,1.6992578E2,1.0495717E3,1.7418035E3,2.0077557E3,2.278719E2],"tree_param":{"num_deleted":"0","num_feature":"105","num_nodes":"31","size_leaf_vector":"1"}},{"base_weights":[-1.6342208E-3,-6.80065E-1,2.8616267E-1,-1.2455895E0,-2.8907225E-1,-3.4875013E-2,3.8171095E-1,-1.2732781E0,-8.958787E-1,-6.795846E-1,3.221766E-2,-1.7227964E-1,7.481003E-1,6.137652E-1,2.9318005E-1,-2.5524346E-2,-2.795958E-3,3.1836608E-3,-2.2202857E-2,-1.6592527E-2,-4.619703E-3,3.0704099E-3,-1.2428838E-2,1.3419155E-2,-6.273888E-3,1.6232608E-2,-1.0077486E-2,1.06176315E-2,1.7915834E-2,-2.645316E-2,6.9326493E-3],"categories":[],"categories_nodes":[],"categories_segments":[],"categories_sizes":[],"default_left":[0,0,0,0,0,0,0,0,0,0,0,0,0,0,0,0,0,0,0,0,0,0,0,0,0,0,0,0,0,0,0],"id":43,"left_children":[1,3,5,7,9,11,13,15,17,19,21,23,25,27,29,-1,-1,-1,-1,-1,-1,-1,-1,-1,-1,-1,-1,-1,-1,-1,-1],"loss_changes":[2.5339028E3,8.514823E2,2.7985242E2,7.404297E0,2.8848157E2,2.2509271E2,1.4247742E2,2.5144043E0,3.2414047E1,6.776233E1,1.00033195E2,2.1348967E2,2.7176987E1,4.1351868E1,4.4149454E2,0E0,0E0,0E0,0E0,0E0,0E0,0E0,0E0,0E0,0E0,0E0,0E0,0E0,0E0,0E0,0E0],"parents":[2147483647,0,0,1,1,2,2,3,3,4,4,5,5,6,6,7,7,8,8,9,9,10,10,11,11,12,12,13,13,14,14],"right_children":[2,4,6,8,10,12,14,16,18,20,22,24,26,28,30,-1,-1,-1,-1,-1,-1,-1,-1,-1,-1,-1,-1,-1,-1,-1,-1],"split_conditions":[4.35E1,6.6E0,1.45E2,6.3333335E0,1E0,6.2E1,1E0,2.6178E0,5E0,1.55E1,4.4E1,5E0,2.68E2,3.5E1,6.45E1,-2.5524346E-2,-2.795958E-3,3.1836608E-3,-2.2202857E-2,-1.6592527E-2,-4.619703E-3,3.0704099E-3,-1.2428838E-2,1.3419155E-2,-6.273888E-3,1.6232608E-2,-1.0077486E-2,1.06176315E-2,1.7915834E-2,-2.645316E-2,6.9326493E-3],"split_indices":[28,55,18,55,0,42,103,74,31,28,17,12,47,42,29,0,0,0,0,0,0,0,0,0,0,0,0,0,0,0,0],"split_type":[0,0,0,0,0,0,0,0,0,0,0,0,0,0,0,0,0,0,0,0,0,0,0,0,0,0,0,0,0,0,0],"sum_hessian":[1.2965715E4,3.8609236E3,9.104791E3,1.5727058E3,2.2882178E3,2.0866047E3,7.0181865E3,1.4424353E3,1.3027057E2,1.0317329E3,1.2564849E3,1.7794972E3,3.071076E2,1.9267898E3,5.091397E3,1.4371965E3,5.2386856E0,2.1419022E1,1.08851555E2,7.6828937E2,2.6344354E2,1.0643279E3,1.9215706E2,2.5186507E2,1.5276321E3,2.947102E2,1.2397407E1,1.5030287E3,4.2376114E2,1.5863116E2,4.9327656E3],"tree_param":{"num_deleted":"0","num_feature":"105","num_nodes":"31","size_leaf_vector":"1"}},{"base_weights":[-5.711335E-3,-6.85185E-1,2.828628E-1,-1.2443997E0,-3.0540714E-1,7.873448E-2,4.4632858E-1,-1.2649436E0,-8.2632655E-1,-7.1859056E-1,3.3297587E-2,5.583166E-1,-1.0105403E-1,6.9371545E-1,3.3897924E-1,-2.535675E-2,-2.3310587E-3,2.5027872E-3,-1.987821E-2,-1.6728727E-2,3.812555E-3,-2.4541192E-2,1.7675338E-3,1.8852012E-2,8.644058E-3,-2.7524918E-2,5.452027E-4,1.2587375E-2,1.7616628E-2,-2.1821227E-2,8.0154035E-3],"categories":[],"categories_nodes":[],"categories_segments":[],"categories_sizes":[],"default_left":[0,0,0,0,0,0,0,0,0,0,0,0,0,0,0,0,0,0,0,0,0,0,0,0,0,0,0,0,0,0,0],"id":44,"left_children":[1,3,5,7,9,11,13,15,17,19,21,23,25,27,29,-1,-1,-1,-1,-1,-1,-1,-1,-1,-1,-1,-1,-1,-1,-1,-1],"loss_changes":[2.5164128E3,8.091317E2,2.9979742E2,5.9504395E0,3.2077023E2,3.467961E2,1.3049829E2,2.7314453E0,1.5690453E1,1.119635E2,8.686149E1,4.973468E1,4.7962698E2,1.3833862E1,3.1054578E2,0E0,0E0,0E0,0E0,0E0,0E0,0E0,0E0,0E0,0E0,0E0,0E0,0E0,0E0,0E0,0E0],"parents":[2147483647,0,0,1,1,2,2,3,3,4,4,5,5,6,6,7,7,8,8,9,9,10,10,11,11,12,12,13,13,14,14],"right_children":[2,4,6,8,10,12,14,16,18,20,22,24,26,28,30,-1,-1,-1,-1,-1,-1,-1,-1,-1,-1,-1,-1,-1,-1,-1,-1],"split_conditions":[4.5E1,6.6E0,2E0,6.4666667E0,1E0,5E0,7.025E1,2.6197546E0,4E0,6.74E0,6.36E0,6.4356446E-1,6.36E0,3.5E1,6.5E1,-2.535675E-2,-2.3310587E-3,2.5027872E-3,-1.987821E-2,-1.6728727E-2,3.812555E-3,-2.4541192E-2,1.7675338E-3,1.8852012E-2,8.644058E-3,-2.7524918E-2,5.452027E-4,1.2587375E-2,1.7616628E-2,-2.1821227E-2,8.0154035E-3],"split_indices":[28,55,27,55,0,12,52,74,31,56,56,69,56,42,29,0,0,0,0,0,0,0,0,0,0,0,0,0,0,0,0],"split_type":[0,0,0,0,0,0,0,0,0,0,0,0,0,0,0,0,0,0,0,0,0,0,0,0,0,0,0,0,0,0,0],"sum_hessian":[1.2821705E4,3.8211226E3,9.000582E3,1.5397937E3,2.2813289E3,4.0084924E3,4.99209E3,1.4557391E3,8.405459E1,1.026479E3,1.2548499E3,1.0916293E3,2.9168633E3,1.499609E3,3.492481E3,1.4506925E3,5.0465956E0,1.1883675E1,7.217091E1,9.100283E2,1.1645073E2,4.732734E1,1.2075225E3,2.597718E2,8.318575E2,2.6293808E2,2.653925E3,1.1360859E3,3.6352307E2,1.4053683E2,3.351944E3],"tree_param":{"num_deleted":"0","num_feature":"105","num_nodes":"31","size_leaf_vector":"1"}},{"base_weights":[-7.887675E-3,-6.324868E-1,2.0916218E-1,-1.180132E0,-2.9161364E-1,-7.9741245E-3,4.1803107E-1,-1.2310114E0,-1.2710164E-1,-7.015508E-1,4.805593E-2,-1.2039633E-1,4.347816E-1,3.518721E-1,7.820325E-1,-2.469412E-2,-4.9731503E-3,3.4281423E-3,-2.587461E-2,-1.584821E-2,6.423716E-3,1.6060552E-3,-2.8238807E-2,-7.509939E-3,1.4899996E-3,-9.313113E-3,1.0627372E-2,2.8927599E-3,9.324901E-3,1.6597064E-2,6.986167E-3],"categories":[],"categories_nodes":[],"categories_segments":[],"categories_sizes":[],"default_left":[0,0,0,0,0,0,0,0,0,0,0,0,0,0,0,0,0,0,0,0,0,0,0,0,0,0,0,0,0,0,0],"id":45,"left_children":[1,3,5,7,9,11,13,15,17,19,21,23,25,27,29,-1,-1,-1,-1,-1,-1,-1,-1,-1,-1,-1,-1,-1,-1,-1,-1],"loss_changes":[1.7373335E3,6.1381616E2,4.3159317E2,6.564856E1,2.8556854E2,2.3208861E2,1.1424298E2,1.3566895E0,2.4796658E1,8.800537E1,5.2043835E1,1.8564484E2,8.33755E1,9.655966E1,1.2668579E1,0E0,0E0,0E0,0E0,0E0,0E0,0E0,0E0,0E0,0E0,0E0,0E0,0E0,0E0,0E0,0E0],"parents":[2147483647,0,0,1,1,2,2,3,3,4,4,5,5,6,6,7,7,8,8,9,9,10,10,11,11,12,12,13,13,14,14],"right_children":[2,4,6,8,10,12,14,16,18,20,22,24,26,28,30,-1,-1,-1,-1,-1,-1,-1,-1,-1,-1,-1,-1,-1,-1,-1,-1],"split_conditions":[2.3E1,6.4666667E0,6.78E0,1.94E2,1E0,1.1E1,7.5333333E0,6.48E0,1E0,-3.390527E-2,7E1,1.45E2,4.76E1,2E0,2E0,-2.469412E-2,-4.9731503E-3,3.4281423E-3,-2.587461E-2,-1.584821E-2,6.423716E-3,1.6060552E-3,-2.8238807E-2,-7.509939E-3,1.4899996E-3,-9.313113E-3,1.0627372E-2,2.8927599E-3,9.324901E-3,1.6597064E-2,6.986167E-3],"split_indices":[29,55,56,18,97,42,55,56,103,67,52,18,52,27,14,0,0,0,0,0,0,0,0,0,0,0,0,0,0,0,0],"split_type":[0,0,0,0,0,0,0,0,0,0,0,0,0,0,0,0,0,0,0,0,0,0,0,0,0,0,0,0,0,0,0],"sum_hessian":[1.2802107E4,3.3002097E3,9.501897E3,1.2602516E3,2.0399583E3,4.6587583E3,4.843139E3,1.2004543E3,5.9797215E1,9.232873E2,1.1166709E3,3.7200754E3,9.38683E2,4.1089062E3,7.3423267E2,1.1936626E3,6.791842E0,5.0327877E1,9.469337E0,8.4988727E2,7.3400024E1,1.0978331E3,1.883784E1,1.611402E3,2.1086736E3,8.8081345E1,8.506016E2,1.4683849E3,2.6405215E3,6.549534E2,7.92792E1],"tree_param":{"num_deleted":"0","num_feature":"105","num_nodes":"31","size_leaf_vector":"1"}},{"base_weights":[7.513323E-3,-6.63893E-1,2.815242E-1,-2.4721142E-2,-2.7277938E-1,-1.3065031E-1,3.540265E-1,-6.324726E-1,1.8362485E-2,-3.07809E-1,3.726419E-1,2.7965754E-1,5.916236E-1,-1.47141265E-2,8.218191E-4,2.7214002E-3,-1.2162904E-2,-8.205424E-3,1.194972E-2,2.4797209E-3,1.4429906E-2,9.514188E-3,2.9452553E-3,1.5491714E-2,9.580357E-3],"categories":[],"categories_nodes":[],"categories_segments":[],"categories_sizes":[],"default_left":[0,0,0,0,0,0,0,0,0,0,0,0,0,0,0,0,0,0,0,0,0,0,0,0,0],"id":46,"left_children":[1,3,5,-1,7,9,11,13,15,17,19,21,23,-1,-1,-1,-1,-1,-1,-1,-1,-1,-1,-1,-1],"loss_changes":[2.3646152E3,8.303406E2,2.7330078E2,0E0,2.3314229E2,1.2242787E2,1.3555945E2,7.001254E1,9.066036E1,9.524252E1,2.9657345E1,1.529169E2,3.4884216E1,0E0,0E0,0E0,0E0,0E0,0E0,0E0,0E0,0E0,0E0,0E0,0E0],"parents":[2147483647,0,0,1,1,2,2,4,4,5,5,6,6,7,7,8,8,9,9,10,10,11,11,12,12],"right_children":[2,4,6,-1,8,10,12,14,16,18,20,22,24,-1,-1,-1,-1,-1,-1,-1,-1,-1,-1,-1,-1],"split_conditions":[3.65E1,6.6E0,1E0,-2.4721142E-2,1E0,7E0,7.16E0,6.64E0,3.5E1,2E0,7.6E1,1E0,9E0,-1.47141265E-2,8.218191E-4,2.7214002E-3,-1.2162904E-2,-8.205424E-3,1.194972E-2,2.4797209E-3,1.4429906E-2,9.514188E-3,2.9452553E-3,1.5491714E-2,9.580357E-3],"split_indices":[28,55,16,0,0,55,56,56,17,26,64,103,30,0,0,0,0,0,0,0,0,0,0,0,0],"split_type":[0,0,0,0,0,0,0,0,0,0,0,0,0,0,0,0,0,0,0,0,0,0,0,0,0],"sum_hessian":[1.2845079E4,3.719778E3,9.125301E3,1.504894E3,2.214884E3,1.3623806E3,7.7629204E3,9.8971136E2,1.2251727E3,1.0105843E3,3.5179636E2,5.9238296E3,1.8390907E3,8.5906934E2,1.3064204E2,1.036034E3,1.8913864E2,9.11283E2,9.930127E1,2.1102528E2,1.4077107E2,2.3795874E3,3.5442422E3,6.86077E2,1.1530137E3],"tree_param":{"num_deleted":"0","num_feature":"105","num_nodes":"25","size_leaf_vector":"1"}},{"base_weights":[-1.05544375E-2,-6.747139E-1,2.596557E-1,-1.2252955E0,-3.0585152E-1,1.1674063E-1,4.629138E-1,-1.2280574E0,-2.4979133E-3,-6.756201E-1,-7.1695503E-3,5.099625E-1,-6.9092594E-2,7.401349E-1,3.3418968E-1,-2.4979318E-2,-1.8524317E-2,-1.571064E-2,2.783523E-3,-2.415865E-2,8.657231E-4,1.2662713E-2,3.3785498E-3,-2.422357E-2,1.2810309E-3,-1.7778276E-2,1.5081292E-2,4.344659E-3,1.1896861E-2],"categories":[],"categories_nodes":[],"categories_segments":[],"categories_sizes":[],"default_left":[0,0,0,0,0,0,0,0,0,0,0,0,0,0,0,0,0,0,0,0,0,0,0,0,0,0,0,0,0],"id":47,"left_children":[1,3,5,7,9,11,13,15,-1,17,19,21,23,25,27,-1,-1,-1,-1,-1,-1,-1,-1,-1,-1,-1,-1,-1,-1],"loss_changes":[2.2878264E3,7.453898E2,2.6230127E2,2.3674316E0,2.4399298E2,3.89999E2,1.3098541E2,1.3256836E0,0E0,8.971442E1,7.607748E1,7.059531E1,5.521836E2,2.9945557E1,7.665906E1,0E0,0E0,0E0,0E0,0E0,0E0,0E0,0E0,0E0,0E0,0E0,0E0,0E0,0E0],"parents":[2147483647,0,0,1,1,2,2,3,3,4,4,5,5,6,6,7,7,9,9,10,10,11,11,12,12,13,13,14,14],"right_children":[2,4,6,8,10,12,14,16,-1,18,20,22,24,26,28,-1,-1,-1,-1,-1,-1,-1,-1,-1,-1,-1,-1,-1,-1],